contig_id,0,1,2,3,4,5,6,7,8,9,10,11,12,13,14,15,16,17,18,19,20,21,22,23,24,25,26,27,28,29
W688674,-0.5862559,1.1729872,0.81734776,-0.073261194,0.013120889,1.1669096,-0.36564392,0.6203686,0.22655368,0.0012341014,0.5883211,-0.47369233,-0.6163422,0.14821294,-0.052760117,0.09611795,0.095926605,-0.33772215,0.2856011,0.5857725,-0.16372465,0.53199446,0.13740273,0.45028675,0.060532354,0.061136607,0.047546044,-0.2700724,-0.04415542,0.27028722
W689088,-0.5862559,1.1729872,0.81734776,-0.073261194,0.013120889,1.1669096,-0.36564392,0.6203686,0.22655368,0.0012341014,0.5883211,-0.47369233,-0.6163422,0.14821294,-0.052760117,0.09611795,0.095926605,-0.33772215,0.2856011,0.5857725,-0.16372465,0.53199446,0.13740273,0.45028675,0.060532354,0.061136607,0.047546044,-0.2700724,-0.04415542,0.27028722
WMC624739,0.4951406,0.5415825,-0.0059416434,0.02310234,-0.37728703,0.9715124,0.07272486,0.38895938,-0.22289442,-0.51969993,-0.37784994,-0.27078113,-0.7435005,0.26106432,0.28635472,0.2184061,0.42504108,-0.5585148,1.1082318,1.1774917,0.25270241,0.40348804,-0.5870821,0.07398492,0.33270416,0.3897734,0.25546154,-0.07407835,0.03635191,0.18032427
WMC624858,0.4951406,0.5415825,-0.0059416434,0.02310234,-0.37728703,0.9715124,0.07272486,0.38895938,-0.22289442,-0.51969993,-0.37784994,-0.27078113,-0.7435005,0.26106432,0.28635472,0.2184061,0.42504108,-0.5585148,1.1082318,1.1774917,0.25270241,0.40348804,-0.5870821,0.07398492,0.33270416,0.3897734,0.25546154,-0.07407835,0.03635191,0.18032427
WMC0035325,-0.9102088,-0.17826575,0.16074626,0.41284502,-0.75495803,0.21611421,-0.20936705,0.18070821,0.5081303,-0.42735463,0.010000397,0.13645533,-0.21900676,-0.56556165,0.28213218,-0.0040172637,0.33844125,0.009629851,1.2667911,-0.035943273,-0.08856161,1.708696,-0.6120734,0.62469804,0.33755228,-0.0010242262,0.3997663,0.3134833,0.20566219,0.32671067
WMC0035186,-0.9102088,-0.17826575,0.16074626,0.41284502,-0.75495803,0.21611421,-0.20936705,0.18070821,0.5081303,-0.42735463,0.010000397,0.13645533,-0.21900676,-0.56556165,0.28213218,-0.0040172637,0.33844125,0.009629851,1.2667911,-0.035943273,-0.08856161,1.708696,-0.6120734,0.62469804,0.33755228,-0.0010242262,0.3997663,0.3134833,0.20566219,0.32671067
W840569,0.4106682,-0.084024474,0.74833167,0.14778149,-0.19408885,0.06798783,0.44620663,0.27271575,-0.3926725,-0.71952546,-0.3566277,-0.45939928,-0.7903182,0.12687728,0.61415154,0.076179974,0.18807247,-0.005015187,1.9159544,0.099445246,-0.09054561,1.0966061,0.213075,0.24253218,0.076119915,0.42524394,0.35552776,-0.42782107,0.07373565,0.20711476
W842195,0.4106682,-0.084024474,0.74833167,0.14778149,-0.19408885,0.06798783,0.44620663,0.27271575,-0.3926725,-0.71952546,-0.3566277,-0.45939928,-0.7903182,0.12687728,0.61415154,0.076179974,0.18807247,-0.005015187,1.9159544,0.099445246,-0.09054561,1.0966061,0.213075,0.24253218,0.076119915,0.42524394,0.35552776,-0.42782107,0.07373565,0.20711476
W842496,0.4106682,-0.084024474,0.74833167,0.14778149,-0.19408885,0.06798783,0.44620663,0.27271575,-0.3926725,-0.71952546,-0.3566277,-0.45939928,-0.7903182,0.12687728,0.61415154,0.076179974,0.18807247,-0.005015187,1.9159544,0.099445246,-0.09054561,1.0966061,0.213075,0.24253218,0.076119915,0.42524394,0.35552776,-0.42782107,0.07373565,0.20711476
W842369,0.4106682,-0.084024474,0.74833167,0.14778149,-0.19408885,0.06798783,0.44620663,0.27271575,-0.3926725,-0.71952546,-0.3566277,-0.45939928,-0.7903182,0.12687728,0.61415154,0.076179974,0.18807247,-0.005015187,1.9159544,0.099445246,-0.09054561,1.0966061,0.213075,0.24253218,0.076119915,0.42524394,0.35552776,-0.42782107,0.07373565,0.20711476
WMC289748,0.21724007,0.8721916,0.41670623,0.02604607,-0.1667836,-0.759067,0.15992472,-0.75059795,0.32751566,-0.11662723,0.00027988246,0.028424492,-0.019112075,0.14635473,0.33532682,0.02020865,-0.22523522,-0.22706194,0.5270231,-0.6491169,0.09978802,0.24679692,0.5815045,0.16323233,0.2701238,-0.013822338,-0.12405595,0.13562804,0.12142632,0.097601496
WMC290030,0.21724007,0.8721916,0.41670623,0.02604607,-0.1667836,-0.759067,0.15992472,-0.75059795,0.32751566,-0.11662723,0.00027988246,0.028424492,-0.019112075,0.14635473,0.33532682,0.02020865,-0.22523522,-0.22706194,0.5270231,-0.6491169,0.09978802,0.24679692,0.5815045,0.16323233,0.2701238,-0.013822338,-0.12405595,0.13562804,0.12142632,0.097601496
WMC0035049,0.5328351,0.986563,-0.13157083,-0.5939427,-0.5109889,1.0813396,0.17395258,-0.025170457,0.98910743,-0.89927346,0.012144977,-0.24107741,0.05952305,-0.39992362,0.04316886,0.06592347,0.43703145,-0.6388562,0.5924941,0.99691063,0.16607061,0.8787429,0.048317693,0.42338693,0.47117424,0.24707614,-0.27488744,-0.08870937,-0.24330704,0.45583004
W840042,-0.004717476,0.67107594,0.16229668,0.23069526,-0.12055835,0.18858232,0.20855935,0.368147,0.7929322,-0.44977432,-0.7001752,-0.25502434,0.2553334,0.14413027,0.7388065,0.13018808,0.2617579,-0.44879663,1.1522214,-0.5592036,-0.40338057,0.7094893,-0.7131166,0.4233672,0.41757065,0.013771617,-0.29528102,-0.5247413,0.06278891,0.29616615
W686813,-0.54488766,1.3857979,0.014181283,-0.3572728,-0.8022922,0.28763148,-0.19451474,0.30430856,0.84846056,0.1818393,-0.7040062,0.4614599,0.29343155,-0.7241062,0.5156192,0.3304448,0.0036372235,-0.31786588,1.6026765,-0.31567898,-0.053788114,0.90342337,0.063379556,-0.34010184,0.57357407,0.011279383,-0.7820701,-0.1891901,0.1918162,0.4335392
WMC626388,-0.818521,0.29012623,0.4065286,-0.34541255,-0.7276609,0.31595355,0.5476862,0.7622263,0.23457305,0.17404164,0.4030054,0.43392196,-0.58141965,-0.33877197,0.5463012,0.06765432,-0.42958644,-0.7594514,1.7434102,-0.40924007,-0.39249492,1.6525669,0.15421501,0.07936935,0.4726716,-0.37260738,0.28630176,0.2791686,-0.64726084,0.48966146
W689059,1.0099504,0.016267816,0.12813546,-0.58613336,-0.2640262,0.038532455,0.4086121,-0.9420112,-0.44157287,0.4387528,-0.55411077,-0.075313315,0.403238,0.3832456,-0.44438085,0.11600167,0.53314275,-0.9737805,0.23493946,0.16327922,0.32454225,0.1536098,0.20295142,0.48058343,0.27087754,0.12478553,0.43926242,-0.3489654,0.1582273,0.0020765944
W689565,-0.8329908,0.24192636,0.8210702,0.0011411674,-0.35234886,-0.77728087,-0.6663346,-0.81724715,0.5087512,-0.75899243,1.086845,-0.13973278,-0.22666393,-0.842797,0.23083158,-0.028928678,-0.69023323,-0.3891966,0.41067463,-0.92511743,-0.022185698,0.5424312,-0.14222471,-0.3691475,-0.025370711,0.28459743,-0.6918994,0.03671905,0.40501198,0.08270067
W703125,-0.8323197,0.26049438,0.32037258,0.18538618,-0.8888227,-0.64754707,0.4995556,-0.45914754,0.0046187164,-0.15697005,0.16009466,-0.063537546,-0.16481218,-0.2921025,-0.022910222,0.41565946,0.04745159,-0.45495886,-0.66669595,-0.8599243,0.0060163243,0.24887328,0.26272047,0.33854458,0.4470065,-0.006342469,-0.8273787,0.29140386,0.1311551,0.4968916
W843521,0.68897676,-0.42516124,-0.119232744,-0.26622763,0.4395354,0.02454343,0.52949095,0.17534983,0.06236935,0.3019132,-0.23557977,0.06885631,-0.36545414,0.2998885,0.34505406,0.06542902,-0.12701441,-0.21691504,0.90408504,-1.004749,0.29082042,-0.5189779,0.1349451,-0.27066353,0.32191035,-0.083257616,0.40613213,0.5318675,0.14150275,0.29864693
W692322,-0.69057715,0.7870083,-0.42654556,0.02600906,0.100976504,0.008952043,0.22775663,-0.12025069,0.2058099,-0.4722135,-0.09469533,0.014072548,-0.7312741,0.30245966,0.4305495,0.52408904,-0.23162706,-0.4116161,-0.6938417,-0.96603054,0.10299794,0.17150182,0.3046556,-0.39101252,0.16757809,0.15774433,0.444199,-0.116799295,0.245041,0.16282517
W692251,-0.37981784,-0.30130598,0.10304087,-0.3259615,-0.20382069,-0.6799364,0.3873873,-0.637506,-0.17369781,-0.7454326,0.29698995,0.22862422,0.04726452,0.40490717,-0.23892762,0.2839891,0.32011095,-0.4690577,-0.14495681,-0.3418591,-0.021871429,0.3783801,0.27432516,0.3806904,0.20505607,-0.53947735,0.27675098,-0.45570529,0.54280144,-0.14488493
WMC693667,0.5279594,-0.28902417,-0.38445953,0.009806419,-0.20636983,-0.75406307,0.3676584,-0.1449895,0.131372,-0.7564901,0.4727072,0.0952138,0.17765929,-0.33767354,-0.00892525,0.18501943,0.15892652,0.027199307,-0.5037221,-0.22597861,0.29655546,0.16121376,0.27306786,0.48041615,0.47354427,-0.31344756,0.39095443,-0.09648641,-0.59713894,0.05977241
WMC696573,0.5279594,-0.28902417,-0.38445953,0.009806419,-0.20636983,-0.75406307,0.3676584,-0.1449895,0.131372,-0.7564901,0.4727072,0.0952138,0.17765929,-0.33767354,-0.00892525,0.18501943,0.15892652,0.027199307,-0.5037221,-0.22597861,0.29655546,0.16121376,0.27306786,0.48041615,0.47354427,-0.31344756,0.39095443,-0.09648641,-0.59713894,0.05977241
WMC0035629,-0.7598926,-0.5084681,0.55890787,0.22031716,-0.33695677,-0.70880336,-0.20634855,-0.62743986,0.07135353,0.2254354,0.5620145,-0.35481134,-0.4445456,0.17323095,0.49875754,0.46992847,-0.51075494,-0.37726492,0.1128022,-0.2065986,0.058493342,-0.07316982,0.07896751,0.4264223,0.08089187,-0.26287475,0.06284502,-0.21231273,0.10367003,0.062111713
WMC0035921,-0.7598926,-0.5084681,0.55890787,0.22031716,-0.33695677,-0.70880336,-0.20634855,-0.62743986,0.07135353,0.2254354,0.5620145,-0.35481134,-0.4445456,0.17323095,0.49875754,0.46992847,-0.51075494,-0.37726492,0.1128022,-0.2065986,0.058493342,-0.07316982,0.07896751,0.4264223,0.08089187,-0.26287475,0.06284502,-0.21231273,0.10367003,0.062111713
WMC0036082,-0.7598926,-0.5084681,0.55890787,0.22031716,-0.33695677,-0.70880336,-0.20634855,-0.62743986,0.07135353,0.2254354,0.5620145,-0.35481134,-0.4445456,0.17323095,0.49875754,0.46992847,-0.51075494,-0.37726492,0.1128022,-0.2065986,0.058493342,-0.07316982,0.07896751,0.4264223,0.08089187,-0.26287475,0.06284502,-0.21231273,0.10367003,0.062111713
WMC0037767,-0.7598926,-0.5084681,0.55890787,0.22031716,-0.33695677,-0.70880336,-0.20634855,-0.62743986,0.07135353,0.2254354,0.5620145,-0.35481134,-0.4445456,0.17323095,0.49875754,0.46992847,-0.51075494,-0.37726492,0.1128022,-0.2065986,0.058493342,-0.07316982,0.07896751,0.4264223,0.08089187,-0.26287475,0.06284502,-0.21231273,0.10367003,0.062111713
WMC0035532,0.54747444,-0.4102295,-0.10292802,-0.26703945,0.39634922,-0.6262568,0.3638641,0.5466824,-0.5322256,0.5011125,-0.48937932,0.14720641,-0.53911495,0.49433613,0.27598903,-0.50165665,-0.41999695,-0.834696,0.07067106,0.063678004,0.17972629,-0.34929204,0.33215922,-0.13398029,0.4735176,0.18254995,0.18750079,0.44292834,-0.2994296,-0.14919205
WMC0035812,0.54747444,-0.4102295,-0.10292802,-0.26703945,0.39634922,-0.6262568,0.3638641,0.5466824,-0.5322256,0.5011125,-0.48937932,0.14720641,-0.53911495,0.49433613,0.27598903,-0.50165665,-0.41999695,-0.834696,0.07067106,0.063678004,0.17972629,-0.34929204,0.33215922,-0.13398029,0.4735176,0.18254995,0.18750079,0.44292834,-0.2994296,-0.14919205
WMC0036150,0.54747444,-0.4102295,-0.10292802,-0.26703945,0.39634922,-0.6262568,0.3638641,0.5466824,-0.5322256,0.5011125,-0.48937932,0.14720641,-0.53911495,0.49433613,0.27598903,-0.50165665,-0.41999695,-0.834696,0.07067106,0.063678004,0.17972629,-0.34929204,0.33215922,-0.13398029,0.4735176,0.18254995,0.18750079,0.44292834,-0.2994296,-0.14919205
WMC0038064,0.54747444,-0.4102295,-0.10292802,-0.26703945,0.39634922,-0.6262568,0.3638641,0.5466824,-0.5322256,0.5011125,-0.48937932,0.14720641,-0.53911495,0.49433613,0.27598903,-0.50165665,-0.41999695,-0.834696,0.07067106,0.063678004,0.17972629,-0.34929204,0.33215922,-0.13398029,0.4735176,0.18254995,0.18750079,0.44292834,-0.2994296,-0.14919205
WMC0038063,0.54747444,-0.4102295,-0.10292802,-0.26703945,0.39634922,-0.6262568,0.3638641,0.5466824,-0.5322256,0.5011125,-0.48937932,0.14720641,-0.53911495,0.49433613,0.27598903,-0.50165665,-0.41999695,-0.834696,0.07067106,0.063678004,0.17972629,-0.34929204,0.33215922,-0.13398029,0.4735176,0.18254995,0.18750079,0.44292834,-0.2994296,-0.14919205
WMC0037903,0.54747444,-0.4102295,-0.10292802,-0.26703945,0.39634922,-0.6262568,0.3638641,0.5466824,-0.5322256,0.5011125,-0.48937932,0.14720641,-0.53911495,0.49433613,0.27598903,-0.50165665,-0.41999695,-0.834696,0.07067106,0.063678004,0.17972629,-0.34929204,0.33215922,-0.13398029,0.4735176,0.18254995,0.18750079,0.44292834,-0.2994296,-0.14919205
WMC0038676,0.54747444,-0.4102295,-0.10292802,-0.26703945,0.39634922,-0.6262568,0.3638641,0.5466824,-0.5322256,0.5011125,-0.48937932,0.14720641,-0.53911495,0.49433613,0.27598903,-0.50165665,-0.41999695,-0.834696,0.07067106,0.063678004,0.17972629,-0.34929204,0.33215922,-0.13398029,0.4735176,0.18254995,0.18750079,0.44292834,-0.2994296,-0.14919205
WMC0038573,0.54747444,-0.4102295,-0.10292802,-0.26703945,0.39634922,-0.6262568,0.3638641,0.5466824,-0.5322256,0.5011125,-0.48937932,0.14720641,-0.53911495,0.49433613,0.27598903,-0.50165665,-0.41999695,-0.834696,0.07067106,0.063678004,0.17972629,-0.34929204,0.33215922,-0.13398029,0.4735176,0.18254995,0.18750079,0.44292834,-0.2994296,-0.14919205
W686262,0.6729058,-0.15235475,0.39989156,0.0056209387,0.38280895,-0.67633116,-0.67006415,0.4017301,-0.41234124,0.32277587,0.33666998,0.053880405,-0.23919085,0.3688175,0.112099424,-0.024233837,0.046317346,-0.71275413,0.9612416,-0.081579395,0.33728084,-0.79365003,-0.21262155,0.17543647,0.2276026,0.17668208,0.3030186,0.3926026,-0.54893225,-0.0043470403
W692523,0.15624948,-0.3160078,-0.2152038,-0.38449517,-0.11179196,-0.056501046,0.45569646,-1.1453891,-0.26241326,-0.31336436,-0.032838948,0.08203504,0.6389702,0.13890828,0.15465295,-0.4188258,0.37022778,-0.9680888,0.011136938,0.31932235,0.2822122,-0.112537764,0.30150124,-0.6585757,-0.105082415,0.6193788,0.10779875,-0.47250754,-0.39986986,-0.0690747
W693100,0.15624948,-0.3160078,-0.2152038,-0.38449517,-0.11179196,-0.056501046,0.45569646,-1.1453891,-0.26241326,-0.31336436,-0.032838948,0.08203504,0.6389702,0.13890828,0.15465295,-0.4188258,0.37022778,-0.9680888,0.011136938,0.31932235,0.2822122,-0.112537764,0.30150124,-0.6585757,-0.105082415,0.6193788,0.10779875,-0.47250754,-0.39986986,-0.0690747
WMC0038608,-0.41889706,0.61106694,-0.087725066,0.3579163,0.46918014,-0.6620673,0.13334672,0.22174942,-0.44600806,-0.6470179,-0.5481299,-0.31703287,0.13593951,-0.53376675,0.121567935,-0.23642018,-0.02433957,-0.7093123,0.20166601,-0.29531413,0.4651844,0.6426267,0.5054455,-0.14994349,0.13618325,-0.047629133,0.15014447,0.2624153,0.4009828,0.27405325
W683957,-0.77194965,0.356587,0.58553,0.1797226,-0.4974717,0.08673277,-0.56215703,-0.81315655,0.29180428,0.27300832,0.17215568,0.119657286,-0.23999335,-0.085901804,0.4004124,0.23443335,0.19621602,-0.4160517,0.33241695,-0.98457956,0.38060206,-0.032362256,-0.11543712,0.22793539,-0.035062294,0.013424891,0.29483393,0.21683167,0.37019375,0.16140191
W695176,-0.57204556,0.5084762,0.61893415,0.26364568,-0.37162986,-0.50774086,0.00038049612,-0.78126895,0.81027263,-0.645952,0.5024498,-0.19516674,-0.17225778,0.39796108,-0.24447578,0.32428643,-0.56140816,-0.3235186,0.73823565,-0.19826561,0.3317935,0.3119741,0.38030753,0.5154654,0.1286808,-0.417489,-0.075214915,-0.4698382,0.7321568,-0.18501723
W684255,0.308628,1.0555296,-0.21152806,0.105898306,-0.67601335,-0.7927706,0.27403378,0.0353234,0.15945533,-0.6559255,-0.32295546,0.12654358,-0.23843332,-0.8346175,0.6338007,-0.47022668,-0.045549244,0.18085359,-0.5722751,-0.43909457,0.39460564,0.31367552,-0.39504582,-0.60937357,0.2794135,-0.3339738,-0.30438924,0.09533811,0.5502353,0.22506148
W686648,0.308628,1.0555296,-0.21152806,0.105898306,-0.67601335,-0.7927706,0.27403378,0.0353234,0.15945533,-0.6559255,-0.32295546,0.12654358,-0.23843332,-0.8346175,0.6338007,-0.47022668,-0.045549244,0.18085359,-0.5722751,-0.43909457,0.39460564,0.31367552,-0.39504582,-0.60937357,0.2794135,-0.3339738,-0.30438924,0.09533811,0.5502353,0.22506148
W688613,0.6387174,0.74288565,-0.37352198,-0.19011655,-0.7110467,-0.88835806,-0.19432254,0.018812876,0.46681827,0.3896943,-0.7948661,0.33959913,0.4443858,-0.23101047,-0.04789342,0.28988293,0.03869859,0.0269409,0.8244075,-0.97475034,0.28653747,0.083482794,0.38325256,0.028170278,0.39541936,-0.29237267,0.030042103,0.07029857,0.18898755,0.07603104
WMC286758,0.025782824,0.98204184,-0.43938756,0.17133826,-0.52695155,-0.8433094,-0.058346834,-0.0522873,-0.38362622,-0.0391657,-0.43811813,0.5435466,-0.6178436,0.45169774,0.5666632,0.24172711,-0.540547,-0.5508201,0.41314748,-0.8155768,0.17032586,0.18142089,0.30357444,-0.15242474,0.39480734,0.18134534,0.2685455,-0.18303342,-0.12622838,-0.120532155
WMC287522,0.025782824,0.98204184,-0.43938756,0.17133826,-0.52695155,-0.8433094,-0.058346834,-0.0522873,-0.38362622,-0.0391657,-0.43811813,0.5435466,-0.6178436,0.45169774,0.5666632,0.24172711,-0.540547,-0.5508201,0.41314748,-0.8155768,0.17032586,0.18142089,0.30357444,-0.15242474,0.39480734,0.18134534,0.2685455,-0.18303342,-0.12622838,-0.120532155
WMC289584,0.025782824,0.98204184,-0.43938756,0.17133826,-0.52695155,-0.8433094,-0.058346834,-0.0522873,-0.38362622,-0.0391657,-0.43811813,0.5435466,-0.6178436,0.45169774,0.5666632,0.24172711,-0.540547,-0.5508201,0.41314748,-0.8155768,0.17032586,0.18142089,0.30357444,-0.15242474,0.39480734,0.18134534,0.2685455,-0.18303342,-0.12622838,-0.120532155
WMC291204,0.025782824,0.98204184,-0.43938756,0.17133826,-0.52695155,-0.8433094,-0.058346834,-0.0522873,-0.38362622,-0.0391657,-0.43811813,0.5435466,-0.6178436,0.45169774,0.5666632,0.24172711,-0.540547,-0.5508201,0.41314748,-0.8155768,0.17032586,0.18142089,0.30357444,-0.15242474,0.39480734,0.18134534,0.2685455,-0.18303342,-0.12622838,-0.120532155
W702955,0.52927893,0.8866699,-0.10829887,0.18351659,-0.6162723,-0.73793733,0.38561827,-0.6178171,-0.38005036,-0.7281665,0.04129403,0.24091528,-0.3668886,0.13756181,0.9805285,-0.55367416,0.043987747,-0.0667323,0.12475326,-0.008318195,0.20297882,-0.3946598,0.2246927,-0.9947211,0.33962068,0.28036314,0.2727588,0.11530143,-0.1439943,0.03536128
W702816,0.52927893,0.8866699,-0.10829887,0.18351659,-0.6162723,-0.73793733,0.38561827,-0.6178171,-0.38005036,-0.7281665,0.04129403,0.24091528,-0.3668886,0.13756181,0.9805285,-0.55367416,0.043987747,-0.0667323,0.12475326,-0.008318195,0.20297882,-0.3946598,0.2246927,-0.9947211,0.33962068,0.28036314,0.2727588,0.11530143,-0.1439943,0.03536128
W703164,0.52927893,0.8866699,-0.10829887,0.18351659,-0.6162723,-0.73793733,0.38561827,-0.6178171,-0.38005036,-0.7281665,0.04129403,0.24091528,-0.3668886,0.13756181,0.9805285,-0.55367416,0.043987747,-0.0667323,0.12475326,-0.008318195,0.20297882,-0.3946598,0.2246927,-0.9947211,0.33962068,0.28036314,0.2727588,0.11530143,-0.1439943,0.03536128
W703433,0.52927893,0.8866699,-0.10829887,0.18351659,-0.6162723,-0.73793733,0.38561827,-0.6178171,-0.38005036,-0.7281665,0.04129403,0.24091528,-0.3668886,0.13756181,0.9805285,-0.55367416,0.043987747,-0.0667323,0.12475326,-0.008318195,0.20297882,-0.3946598,0.2246927,-0.9947211,0.33962068,0.28036314,0.2727588,0.11530143,-0.1439943,0.03536128
W703165,0.52927893,0.8866699,-0.10829887,0.18351659,-0.6162723,-0.73793733,0.38561827,-0.6178171,-0.38005036,-0.7281665,0.04129403,0.24091528,-0.3668886,0.13756181,0.9805285,-0.55367416,0.043987747,-0.0667323,0.12475326,-0.008318195,0.20297882,-0.3946598,0.2246927,-0.9947211,0.33962068,0.28036314,0.2727588,0.11530143,-0.1439943,0.03536128
W703177,0.52927893,0.8866699,-0.10829887,0.18351659,-0.6162723,-0.73793733,0.38561827,-0.6178171,-0.38005036,-0.7281665,0.04129403,0.24091528,-0.3668886,0.13756181,0.9805285,-0.55367416,0.043987747,-0.0667323,0.12475326,-0.008318195,0.20297882,-0.3946598,0.2246927,-0.9947211,0.33962068,0.28036314,0.2727588,0.11530143,-0.1439943,0.03536128
W703259,0.52927893,0.8866699,-0.10829897,0.1835166,-0.6162723,-0.73793733,0.3856182,-0.61781734,-0.38005036,-0.72816664,0.041294035,0.24091528,-0.3668886,0.13756183,0.9805285,-0.55367416,0.04398773,-0.0667322,0.12475334,-0.008318195,0.20297877,-0.3946598,0.22469272,-0.9947211,0.3396207,0.28036314,0.27275884,0.115301445,-0.1439943,0.03536126
W703381,0.52927893,0.8866699,-0.10829897,0.1835166,-0.6162723,-0.73793733,0.3856182,-0.61781734,-0.38005036,-0.72816664,0.041294035,0.24091528,-0.3668886,0.13756183,0.9805285,-0.55367416,0.04398773,-0.0667322,0.12475334,-0.008318195,0.20297877,-0.3946598,0.22469272,-0.9947211,0.3396207,0.28036314,0.27275884,0.115301445,-0.1439943,0.03536126
W703712,0.52927893,0.8866699,-0.10829887,0.18351659,-0.6162723,-0.73793733,0.38561827,-0.6178171,-0.38005036,-0.7281665,0.04129403,0.24091528,-0.3668886,0.13756181,0.9805285,-0.55367416,0.043987747,-0.0667323,0.12475326,-0.008318195,0.20297882,-0.3946598,0.2246927,-0.9947211,0.33962068,0.28036314,0.2727588,0.11530143,-0.1439943,0.03536128
W703884,0.52927893,0.8866699,-0.10829887,0.18351659,-0.6162723,-0.73793733,0.38561827,-0.6178171,-0.38005036,-0.7281665,0.04129403,0.24091528,-0.3668886,0.13756181,0.9805285,-0.55367416,0.043987747,-0.0667323,0.12475326,-0.008318195,0.20297882,-0.3946598,0.2246927,-0.9947211,0.33962068,0.28036314,0.2727588,0.11530143,-0.1439943,0.03536128
W703853,0.52927893,0.8866699,-0.10829887,0.18351659,-0.6162723,-0.73793733,0.38561827,-0.6178171,-0.38005036,-0.7281665,0.04129403,0.24091528,-0.3668886,0.13756181,0.9805285,-0.55367416,0.043987747,-0.0667323,0.12475326,-0.008318195,0.20297882,-0.3946598,0.2246927,-0.9947211,0.33962068,0.28036314,0.2727588,0.11530143,-0.1439943,0.03536128
W703722,0.52927893,0.8866699,-0.10829887,0.18351659,-0.6162723,-0.73793733,0.38561827,-0.6178171,-0.38005036,-0.7281665,0.04129403,0.24091528,-0.3668886,0.13756181,0.9805285,-0.55367416,0.043987747,-0.0667323,0.12475326,-0.008318195,0.20297882,-0.3946598,0.2246927,-0.9947211,0.33962068,0.28036314,0.2727588,0.11530143,-0.1439943,0.03536128
W703626,0.52927893,0.8866699,-0.10829887,0.18351659,-0.6162723,-0.73793733,0.38561827,-0.6178171,-0.38005036,-0.7281665,0.04129403,0.24091528,-0.3668886,0.13756181,0.9805285,-0.55367416,0.043987747,-0.0667323,0.12475326,-0.008318195,0.20297882,-0.3946598,0.2246927,-0.9947211,0.33962068,0.28036314,0.2727588,0.11530143,-0.1439943,0.03536128
WMC627688,0.36969325,0.51781666,0.6846408,-0.37151933,-0.36894807,-0.0824413,0.09422361,-0.5305068,-0.41284925,-0.8179506,0.33775556,-0.072061546,-0.59326106,-0.9044973,-0.40202865,0.10070617,-0.41385326,-0.62990767,0.095031925,0.49270746,0.44978455,-0.30973798,-0.59819025,0.30840397,-0.056483544,-0.058035497,-0.56689864,-0.22645709,0.31235182,0.27890703
W683805,0.4303947,1.0819004,0.22649182,0.15284611,-0.49786463,0.18762378,0.30795777,-0.8059955,-0.51042646,-0.8137519,-0.34408107,-0.18599366,-0.6958663,0.22779493,0.3765502,0.25145528,0.20875186,-0.582298,0.6746809,-0.8299632,0.4116287,0.21251306,-0.54005903,-0.07610899,0.33032268,0.22062445,0.28175804,0.16118568,0.044170927,0.12966727
W684459,-0.9830696,0.92450887,0.6172909,-0.22194688,0.127117,-0.34886155,-0.35442144,0.17106241,-0.23881717,0.28778926,0.25026146,0.1811955,-0.06976726,0.49041912,-0.01567923,0.099622495,-0.25461417,-1.0328624,0.80521685,-0.03105478,0.018163934,-0.80310893,0.1560126,0.24202752,0.22611292,0.16730435,0.21408601,0.50330675,-0.45542225,0.118364416
W683954,-0.91718674,-0.042298317,-0.22916803,-0.16291106,-0.38153818,-0.50092256,0.38580215,-0.74911755,0.1546489,-0.6067447,0.24314627,-0.00077199447,0.3221074,-0.4344609,-0.061821174,0.06333705,0.2093142,-0.41557625,-0.036168363,-0.2212602,0.19260128,0.7491776,0.30635914,-0.2516371,0.5220078,0.18301937,0.5403741,-0.19885664,0.59406155,0.080258675
W840150,-0.8930226,0.1799048,0.5524931,-0.5896865,-0.4052124,-0.14428982,-0.12845162,-0.5546243,0.0061207893,-0.6594419,0.62436384,-0.20303234,-0.29357335,0.46699533,-0.7288571,0.13374121,-0.29492503,-0.6905413,-0.2542289,0.2833355,0.10821679,0.3630453,0.39081326,0.26293036,-0.051788494,-0.37682047,0.19672942,-0.30809116,0.33527255,-0.29838
W842300,-1.0267104,0.18403508,0.6322964,-0.6229095,-0.106367044,-0.89744675,0.17697491,-0.59452164,1.145613,0.50041115,-0.6120203,-0.48375687,-0.2628413,0.4935541,-0.2864572,-0.095001526,-0.8866619,-0.37577844,1.030622,-0.7662079,0.06514747,-0.31674597,-0.34830523,0.7887519,0.33336246,0.31897053,0.6638906,0.0870921,0.363231,-0.32507053
W692445,0.21297555,0.56957483,-0.6589531,0.054526404,-0.46071437,0.27601412,0.119266026,0.4674676,0.092941284,-0.39040014,0.45200264,-0.26485583,0.32320312,-0.1966925,0.26563227,-0.36443985,0.27907386,-0.25043795,-0.35916364,-1.0911126,0.49949047,-0.09204203,0.4257703,0.5199589,0.31432283,-0.36788547,0.44464535,0.07837553,-0.5239178,0.13885641
W692580,0.4694373,0.45148292,0.50260484,-0.14160445,-0.5317683,0.22483368,0.16885118,0.22338125,0.6151446,0.34776914,-0.7812008,0.06851146,0.43037075,-0.13220271,0.16347048,0.04227664,0.24098906,-0.19850391,2.1575027,-0.2181109,-0.1375984,0.8452591,-0.4423305,0.40118164,0.50787973,-0.27535188,-0.16402718,0.12920274,0.0033528043,0.32413724
W692413,0.4694373,0.45148292,0.50260484,-0.14160445,-0.5317683,0.22483368,0.16885118,0.22338125,0.6151446,0.34776914,-0.7812008,0.06851146,0.43037075,-0.13220271,0.16347048,0.04227664,0.24098906,-0.19850391,2.1575027,-0.2181109,-0.1375984,0.8452591,-0.4423305,0.40118164,0.50787973,-0.27535188,-0.16402718,0.12920274,0.0033528043,0.32413724
W694326,0.4694373,0.45148292,0.50260484,-0.14160445,-0.5317683,0.22483368,0.16885118,0.22338125,0.6151446,0.34776914,-0.7812008,0.06851146,0.43037075,-0.13220271,0.16347048,0.04227664,0.24098906,-0.19850391,2.1575027,-0.2181109,-0.1375984,0.8452591,-0.4423305,0.40118164,0.50787973,-0.27535188,-0.16402718,0.12920274,0.0033528043,0.32413724
WMC0034763,-0.55320805,-0.11077392,0.06856892,0.55842614,-0.051401712,0.6534348,-0.027212098,-0.9626091,0.14862907,-0.044417188,0.040895935,0.080266304,-0.32915717,-0.60851,-1.0033396,-0.19439863,0.30055594,-0.82604027,0.570484,0.25375405,0.0002944236,0.076793976,-0.6562764,-0.259759,0.34861767,-0.4743504,0.20386459,-0.19299757,0.15989432,-0.30706823
WMC0034916,-0.55320805,-0.11077392,0.06856892,0.55842614,-0.051401712,0.6534348,-0.027212098,-0.9626091,0.14862907,-0.044417188,0.040895935,0.080266304,-0.32915717,-0.60851,-1.0033396,-0.19439863,0.30055594,-0.82604027,0.570484,0.25375405,0.0002944236,0.076793976,-0.6562764,-0.259759,0.34861767,-0.4743504,0.20386459,-0.19299757,0.15989432,-0.30706823
W684586,-0.33807027,-0.22924621,-0.06783429,-0.46986914,-0.42222878,0.0981426,0.4161635,0.35375717,0.05331762,0.28038815,-0.21034287,0.36556315,-0.9260498,0.20087484,0.41418052,0.31665736,-0.028017102,-0.5457386,1.1136338,-0.019568754,0.026556587,0.6078404,0.19344267,-0.13900688,0.59398806,0.37657702,0.21924314,-0.24842168,0.17530398,0.30531037
W684510,-0.33807027,-0.22924621,-0.06783429,-0.46986914,-0.42222878,0.0981426,0.4161635,0.35375717,0.05331762,0.28038815,-0.21034287,0.36556315,-0.9260498,0.20087484,0.41418052,0.31665736,-0.028017102,-0.5457386,1.1136338,-0.019568754,0.026556587,0.6078404,0.19344267,-0.13900688,0.59398806,0.37657702,0.21924314,-0.24842168,0.17530398,0.30531037
W684546,-0.33807027,-0.22924621,-0.06783429,-0.46986914,-0.42222878,0.0981426,0.4161635,0.35375717,0.05331762,0.28038815,-0.21034287,0.36556315,-0.9260498,0.20087484,0.41418052,0.31665736,-0.028017102,-0.5457386,1.1136338,-0.019568754,0.026556587,0.6078404,0.19344267,-0.13900688,0.59398806,0.37657702,0.21924314,-0.24842168,0.17530398,0.30531037
W688054,-0.33807027,-0.22924621,-0.06783429,-0.46986914,-0.42222878,0.0981426,0.4161635,0.35375717,0.05331762,0.28038815,-0.21034287,0.36556315,-0.9260498,0.20087484,0.41418052,0.31665736,-0.028017102,-0.5457386,1.1136338,-0.019568754,0.026556587,0.6078404,0.19344267,-0.13900688,0.59398806,0.37657702,0.21924314,-0.24842168,0.17530398,0.30531037
W687900,-0.33807027,-0.22924621,-0.06783429,-0.46986914,-0.42222878,0.0981426,0.4161635,0.35375717,0.05331762,0.28038815,-0.21034287,0.36556315,-0.9260498,0.20087484,0.41418052,0.31665736,-0.028017102,-0.5457386,1.1136338,-0.019568754,0.026556587,0.6078404,0.19344267,-0.13900688,0.59398806,0.37657702,0.21924314,-0.24842168,0.17530398,0.30531037
W692723,-0.8242646,0.2734199,0.0350952,-0.505499,0.12422361,0.32635942,0.017868713,1.1173232,0.8385993,0.54353565,-0.7775594,0.0123303635,0.22848687,-0.16155276,-0.5098032,0.13816206,0.458868,-0.960166,1.0461831,-0.06238778,-0.235121,0.5197153,0.40244657,0.28070003,0.32371402,-0.14238566,-0.16787249,0.1430532,0.11186941,0.28899363
WMC0038039,0.49351525,0.061483324,0.8392903,0.04728388,-0.39155734,0.62968266,0.43143463,0.11407101,0.2452044,-0.006621317,0.512658,-0.49142587,-0.50726336,0.07690138,0.3786509,0.35467708,-0.38852876,-0.6309114,0.66803193,-0.6564608,-0.0829028,0.25155783,0.27092624,0.45725337,0.08277389,-0.16212638,0.06868062,-0.04033726,0.017340966,0.18980649
W688836,0.42368633,0.6948124,0.7759906,0.021428624,-0.031426366,0.23252268,0.24857284,-0.21085666,-0.25581783,-0.1396039,0.21265398,-0.3867072,-0.50635546,0.25097904,0.3055961,-0.73430526,0.07779182,-0.51244074,0.78112036,0.9096482,0.30592728,0.7645266,-0.45734423,0.29329723,-0.12154255,0.31074947,0.3513848,0.0626702,-0.46360683,0.06915222
W692446,-0.82774335,1.3474681,0.17794476,-0.21959233,-0.12674887,0.797089,0.21824673,-0.39595392,0.38290203,-0.68850553,-0.11185097,0.30599555,-0.5440569,0.33491826,0.23580033,0.07399299,0.3400391,-0.66862357,0.45340273,1.1020545,0.22848901,0.65427244,0.09335667,-0.18054569,0.34625554,0.09308398,0.27827597,-0.080126144,0.044540614,0.51276624
W692735,-0.82774335,1.3474681,0.17794476,-0.21959233,-0.12674887,0.797089,0.21824673,-0.39595392,0.38290203,-0.68850553,-0.11185097,0.30599555,-0.5440569,0.33491826,0.23580033,0.07399299,0.3400391,-0.66862357,0.45340273,1.1020545,0.22848901,0.65427244,0.09335667,-0.18054569,0.34625554,0.09308398,0.27827597,-0.080126144,0.044540614,0.51276624
WMC331145,0.49803388,-0.39303774,0.4119408,-0.13389823,-0.40422645,0.99011046,-0.10005067,0.0018511032,-0.14900866,-0.88577724,-0.21341461,-0.5698629,-0.9353679,0.24887319,0.13366869,0.13216591,0.63377315,-0.7427907,0.9346353,0.32713917,0.17689268,0.4779818,-0.08385503,-0.05458903,0.44401827,0.27678895,0.14559108,0.057245746,-0.19253807,0.32530674
WMC219999,-0.5606735,0.3259429,0.9291507,0.026870638,-0.30138057,0.09091397,0.5134923,-0.20787033,0.7292273,-0.09063269,0.82846034,-0.0323392,-0.5816444,0.07714501,0.44890478,0.11649993,0.565352,-0.23266783,0.9348832,-0.7590231,-0.14420253,1.1569548,0.07225034,0.21045354,0.2365952,0.1579534,-0.04480858,-0.37059432,0.33679968,0.7151138
WMC220532,-0.5606735,0.3259429,0.9291507,0.026870638,-0.30138057,0.09091397,0.5134923,-0.20787033,0.7292273,-0.09063269,0.82846034,-0.0323392,-0.5816444,0.07714501,0.44890478,0.11649993,0.565352,-0.23266783,0.9348832,-0.7590231,-0.14420253,1.1569548,0.07225034,0.21045354,0.2365952,0.1579534,-0.04480858,-0.37059432,0.33679968,0.7151138
W686114,0.14725873,0.50694144,-0.32862392,-0.21718372,0.26505658,0.25169316,0.04837666,0.53144306,0.8807019,-0.7247901,-0.6056494,-0.009206298,0.19592097,-0.72133553,-0.21286383,0.44408488,0.39664954,-0.78577757,-0.28567755,0.35910425,0.15511578,0.28691778,0.3302405,-0.61207205,0.2949973,-0.121734425,-0.7716302,-0.51045823,0.08411953,0.24738225
WMC0035622,-0.2678827,0.41149047,0.53623825,0.119940355,-0.051958255,0.5509819,0.5583751,-0.71942014,0.72089976,-0.28913096,0.18226245,-0.22267435,0.064067036,0.0074030664,-0.07404755,0.3694268,0.037232812,-0.8192258,0.006155336,0.1558614,0.30840412,0.45580873,0.10649179,-0.4908575,0.4525583,0.18421736,0.20048876,0.28347614,-0.024747416,0.19102958
WMC0038650,-0.2678827,0.41149047,0.53623825,0.119940355,-0.051958255,0.5509819,0.5583751,-0.71942014,0.72089976,-0.28913096,0.18226245,-0.22267435,0.064067036,0.0074030664,-0.07404755,0.3694268,0.037232812,-0.8192258,0.006155336,0.1558614,0.30840412,0.45580873,0.10649179,-0.4908575,0.4525583,0.18421736,0.20048876,0.28347614,-0.024747416,0.19102958
W844388,-0.07059972,-0.24496944,0.27826643,0.22171745,-0.0024271666,0.5233622,-0.50162005,-0.19407482,0.48785058,0.45060855,0.0884177,0.16549224,-0.29369113,0.06943145,0.006980759,0.3375572,0.34896597,0.2561285,0.0028012162,1.5196186,-0.110219896,-0.30238742,0.4562276,0.30378205,-0.2785587,0.10974199,0.28190684,0.15523985,0.4245296,0.035861835
WMC0035852,-0.44695786,0.6556859,0.45919356,0.460259,-0.5993904,0.26725152,0.112486996,0.58375734,0.26072562,0.4225246,0.12653042,-0.17948048,-0.25961483,0.01045992,-0.09814714,0.26435745,-0.15767066,0.09357616,0.630975,0.6012989,-0.08606287,0.5691171,0.502123,0.19347833,-0.27677473,0.13770036,0.32804266,-0.08360814,0.29321676,0.0055176164
WMC0035321,0.3248389,0.08542886,-0.80187,-0.04756102,0.37352625,0.34031948,0.12955205,0.37905002,0.43993545,-0.104897566,0.4399858,0.007301439,0.00446561,-0.28587204,-0.57483566,0.5225533,0.37347287,0.45041844,-0.9539602,1.3389951,-0.10953026,0.33756173,0.3372534,0.557166,-0.05206619,-0.04259519,0.48965627,-0.041459467,-0.32706988,0.0017324414
W842504,-0.4281976,-0.4429649,0.38202244,0.3712313,0.46808895,0.058581002,-0.79587966,0.5858266,0.15874024,0.52416956,0.058142804,-0.5367146,-0.34421667,0.0969918,-0.20896026,0.06276304,-0.091327354,0.21888697,0.26157174,1.0759096,-0.32440963,0.19318563,-0.17922878,0.25570366,-0.31097692,0.09179111,0.30841175,0.21906593,0.20514894,-0.22656596
W842461,-0.4281976,-0.4429649,0.38202244,0.3712313,0.46808895,0.058581002,-0.79587966,0.5858266,0.15874024,0.52416956,0.058142804,-0.5367146,-0.34421667,0.0969918,-0.20896026,0.06276304,-0.091327354,0.21888697,0.26157174,1.0759096,-0.32440963,0.19318563,-0.17922878,0.25570366,-0.31097692,0.09179111,0.30841175,0.21906593,0.20514894,-0.22656596
WMC0035484,-0.5087514,0.68381155,0.20399588,0.56796426,-0.17588511,0.6928161,0.16956353,0.51685554,0.5791555,-0.06579704,-0.4751405,0.18631625,0.48893622,-0.020624733,-0.89452887,0.15490896,0.047222015,-0.23381299,-0.2988211,1.2050439,-0.00032862424,0.4118191,0.39080274,0.0048218225,-0.10557777,0.15641598,0.28600994,-0.07291392,0.15817328,0.054039747
W686674,0.58613926,0.06691824,-0.05180872,0.3136028,0.16046485,-0.28607756,0.10829696,0.44979903,0.49198657,-0.17248549,-0.7130059,-0.4715158,0.27344215,0.15505835,0.111840285,-0.67212015,0.87216157,0.8072196,0.18210702,0.26215446,-0.3402361,0.21349466,-0.33231655,0.25062454,0.034398757,-0.37947494,-0.13886197,-0.009501809,0.020034747,-0.034058608
W688220,-0.11904433,-0.2301427,0.31008017,0.38661295,-0.546304,-0.24762674,-0.71492314,0.1802632,0.47093982,0.42267075,0.08434045,0.16522638,-0.38900116,0.010316854,0.37557283,0.35243657,0.3955982,0.52284503,0.37573698,0.26840714,-0.3232644,0.22857165,-0.25380397,0.3423442,-0.17503883,0.1688925,0.36600405,0.025870431,0.44827312,0.062923506
W839861,-0.5022587,0.5116994,-0.5195064,-0.035545487,-0.005708274,0.5677209,0.1199812,0.26845983,0.32789335,-0.13325189,-0.20704228,-0.11795556,-0.70193267,0.3955344,0.14663137,0.21526405,0.12689692,-0.010900558,-0.78522223,1.1954904,-0.1404947,0.23561831,-0.6296099,-0.23113422,0.016708748,0.25405324,0.43780628,0.05543021,0.26104364,0.197293
W688794,0.7322275,0.28698155,0.077191964,-0.078457355,-0.29354757,0.28669664,-0.116348274,0.098777704,0.2861117,0.25882718,-0.31857404,0.028005648,0.04882748,0.27430493,-0.64192873,-0.4718432,-0.5734859,-0.11323095,0.4586508,0.80949825,0.19342472,-0.08246005,0.46311662,-0.11679542,-0.095967814,-0.04033223,-0.24004899,-0.13051747,0.13090007,-0.19507201
WMC287311,-0.91999096,0.33490157,0.17265604,0.08486731,0.06328755,0.1760183,0.28419766,-0.291702,0.07201452,-0.36454967,-0.5181017,-0.062216237,-0.16308627,-0.7830999,-0.268576,0.17690316,-0.28258142,0.328148,-0.024523687,1.3792388,0.2748066,0.082340494,0.39388204,-0.5249559,-0.5292554,-0.35582373,-0.17092451,-0.06778933,0.6688957,-0.07279645
WMC287410,-0.91999096,0.33490157,0.17265604,0.08486731,0.06328755,0.1760183,0.28419766,-0.291702,0.07201452,-0.36454967,-0.5181017,-0.062216237,-0.16308627,-0.7830999,-0.268576,0.17690316,-0.28258142,0.328148,-0.024523687,1.3792388,0.2748066,0.082340494,0.39388204,-0.5249559,-0.5292554,-0.35582373,-0.17092451,-0.06778933,0.6688957,-0.07279645
WMC287406,-0.91999096,0.33490157,0.17265604,0.08486731,0.06328755,0.1760183,0.28419766,-0.291702,0.07201452,-0.36454967,-0.5181017,-0.062216237,-0.16308627,-0.7830999,-0.268576,0.17690316,-0.28258142,0.328148,-0.024523687,1.3792388,0.2748066,0.082340494,0.39388204,-0.5249559,-0.5292554,-0.35582373,-0.17092451,-0.06778933,0.6688957,-0.07279645
WMC289425,-0.91999096,0.33490157,0.17265604,0.08486731,0.06328755,0.1760183,0.28419766,-0.291702,0.07201452,-0.36454967,-0.5181017,-0.062216237,-0.16308627,-0.7830999,-0.268576,0.17690316,-0.28258142,0.328148,-0.024523687,1.3792388,0.2748066,0.082340494,0.39388204,-0.5249559,-0.5292554,-0.35582373,-0.17092451,-0.06778933,0.6688957,-0.07279645
WMC289718,-0.91999096,0.33490157,0.17265604,0.08486731,0.06328755,0.1760183,0.28419766,-0.291702,0.07201452,-0.36454967,-0.5181017,-0.062216237,-0.16308627,-0.7830999,-0.268576,0.17690316,-0.28258142,0.328148,-0.024523687,1.3792388,0.2748066,0.082340494,0.39388204,-0.5249559,-0.5292554,-0.35582373,-0.17092451,-0.06778933,0.6688957,-0.07279645
WMC289745,-0.91999096,0.33490157,0.17265604,0.08486731,0.06328755,0.1760183,0.28419766,-0.291702,0.07201452,-0.36454967,-0.5181017,-0.062216237,-0.16308627,-0.7830999,-0.268576,0.17690316,-0.28258142,0.328148,-0.024523687,1.3792388,0.2748066,0.082340494,0.39388204,-0.5249559,-0.5292554,-0.35582373,-0.17092451,-0.06778933,0.6688957,-0.07279645
WMC290331,-0.91999096,0.33490157,0.17265604,0.08486731,0.06328755,0.1760183,0.28419766,-0.291702,0.07201452,-0.36454967,-0.5181017,-0.062216237,-0.16308627,-0.7830999,-0.268576,0.17690316,-0.28258142,0.328148,-0.024523687,1.3792388,0.2748066,0.082340494,0.39388204,-0.5249559,-0.5292554,-0.35582373,-0.17092451,-0.06778933,0.6688957,-0.07279645
WMC290169,-0.91999096,0.33490157,0.17265604,0.08486731,0.06328755,0.1760183,0.28419766,-0.291702,0.07201452,-0.36454967,-0.5181017,-0.062216237,-0.16308627,-0.7830999,-0.268576,0.17690316,-0.28258142,0.328148,-0.024523687,1.3792388,0.2748066,0.082340494,0.39388204,-0.5249559,-0.5292554,-0.35582373,-0.17092451,-0.06778933,0.6688957,-0.07279645
W687820,0.6127624,-0.4139872,0.7823917,0.28866026,-0.07854161,0.8141139,0.30743164,0.95340854,1.1582056,-0.9514231,0.24554686,0.45577154,0.14743562,-0.6070361,0.24256143,0.26368296,-0.6626128,0.48318514,-0.51585054,0.37042144,0.021089409,0.73475593,0.3736622,0.27939135,-0.3341069,0.07185695,-0.73967093,0.070750505,0.304827,0.21353288
WMC286319,-0.4230299,0.54229754,0.57430756,0.3609259,-0.63089544,-0.065252446,0.0806684,0.106598146,0.21958144,0.31191182,0.11504931,-0.2328617,-0.38026977,0.04880117,0.36793175,0.16654484,-0.16565008,0.5454235,0.56120205,0.46450177,-0.40104163,0.27581552,0.7109388,0.3350663,-0.08218854,0.05737048,0.26524225,-0.101251155,0.2783611,0.02437194
WMC286514,-0.4230299,0.54229754,0.57430756,0.3609259,-0.63089544,-0.065252446,0.0806684,0.106598146,0.21958144,0.31191182,0.11504931,-0.2328617,-0.38026977,0.04880117,0.36793175,0.16654484,-0.16565008,0.5454235,0.56120205,0.46450177,-0.40104163,0.27581552,0.7109388,0.3350663,-0.08218854,0.05737048,0.26524225,-0.101251155,0.2783611,0.02437194
WMC287005,-0.4230299,0.54229754,0.57430756,0.3609259,-0.63089544,-0.065252446,0.0806684,0.106598146,0.21958144,0.31191182,0.11504931,-0.2328617,-0.38026977,0.04880117,0.36793175,0.16654484,-0.16565008,0.5454235,0.56120205,0.46450177,-0.40104163,0.27581552,0.7109388,0.3350663,-0.08218854,0.05737048,0.26524225,-0.101251155,0.2783611,0.02437194
WMC286780,-0.4230299,0.5422975,0.57430756,0.36092588,-0.63089526,-0.065252654,0.0806684,0.10659806,0.21958144,0.3119119,0.11504931,-0.2328617,-0.38026977,0.04880118,0.36793175,0.16654484,-0.16564998,0.54542357,0.56120217,0.4645018,-0.40104163,0.2758156,0.7109388,0.33506635,-0.08218854,0.057370488,0.2652422,-0.101251155,0.2783611,0.024371916
WMC287092,-0.4230299,0.5422975,0.57430756,0.36092588,-0.63089526,-0.065252654,0.0806684,0.10659806,0.21958144,0.3119119,0.11504931,-0.2328617,-0.38026977,0.04880118,0.36793175,0.16654484,-0.16564998,0.54542357,0.56120217,0.4645018,-0.40104163,0.2758156,0.7109388,0.33506635,-0.08218854,0.057370488,0.2652422,-0.101251155,0.2783611,0.024371916
W694770,0.6564398,0.015995938,0.56891507,0.22526957,-0.40309566,0.864048,0.36495036,0.4086288,0.22318909,-0.4887321,0.4625411,-0.14037274,-0.5256631,0.12888981,-0.5535623,0.29374355,-0.33780968,-0.33406413,0.31906715,1.3197805,-0.18097627,0.58163065,0.30382654,0.36332712,-0.12380666,0.03756478,0.0872321,-0.19468847,0.097393684,0.08984555
WMC286630,0.9154008,0.11265132,-0.17343982,0.2158216,-0.45650515,0.24957702,0.4041554,0.1852532,0.7843211,0.22200866,-0.90637684,-0.07612942,0.24048562,-0.16990846,0.13371715,0.3413739,0.35754046,-0.020313295,0.45468313,0.097824566,-0.48479578,1.2632104,0.37903506,0.3304051,0.051432338,-0.02015705,-0.035572316,0.29477432,0.18601894,0.16948235
WMC290881,0.9154008,0.11265132,-0.17343982,0.2158216,-0.45650515,0.24957702,0.4041554,0.1852532,0.7843211,0.22200866,-0.90637684,-0.07612942,0.24048562,-0.16990846,0.13371715,0.3413739,0.35754046,-0.020313295,0.45468313,0.097824566,-0.48479578,1.2632104,0.37903506,0.3304051,0.051432338,-0.02015705,-0.035572316,0.29477432,0.18601894,0.16948235
W691605,0.65653294,-0.7516008,-0.09638949,0.038463645,-0.25089768,0.25726074,0.33444837,1.1668272,0.56021583,0.3908124,-0.03160137,0.06582023,-0.095268436,0.12694147,0.1410644,0.36163363,0.08285856,0.18559033,0.5742078,0.42239147,-0.5140193,-0.41747996,0.31576765,0.2645661,0.23980334,0.17112155,0.061203774,-0.08863172,0.18448637,-0.0048482553
W689038,0.56336987,-0.48711905,-0.5221394,0.07943375,-0.21079504,0.8578206,0.33445993,1.1844422,0.5024233,0.37484744,-0.10045632,-0.018088166,0.01418832,0.11454926,-0.3277361,0.38969624,-0.09109074,-0.23402278,0.49949425,1.3263019,-0.3480883,0.060113423,0.336779,0.25040022,0.30812895,0.22330412,0.027370676,0.16718015,0.06271896,-0.043776184
W689157,0.56336987,-0.48711905,-0.5221394,0.07943375,-0.21079504,0.8578206,0.33445993,1.1844422,0.5024233,0.37484744,-0.10045632,-0.018088166,0.01418832,0.11454926,-0.3277361,0.38969624,-0.09109074,-0.23402278,0.49949425,1.3263019,-0.3480883,0.060113423,0.336779,0.25040022,0.30812895,0.22330412,0.027370676,0.16718015,0.06271896,-0.043776184
WMC286919,0.7325758,0.45397553,0.15036258,-0.007896098,0.58218986,0.55635947,0.20836577,0.6762046,0.7095913,-0.31696057,0.5699497,0.04825735,-0.26010722,-0.17220643,0.1879975,-0.8303757,0.50369805,0.21804371,0.4793721,1.5216432,-0.11491159,0.1929632,0.117923036,-0.041383494,-0.19637132,0.25097695,-0.2992393,0.079050995,0.22154644,0.44738144
WMC286871,0.7325758,0.45397553,0.15036258,-0.007896098,0.58218986,0.55635947,0.20836577,0.6762046,0.7095913,-0.31696057,0.5699497,0.04825735,-0.26010722,-0.17220643,0.1879975,-0.8303757,0.50369805,0.21804371,0.4793721,1.5216432,-0.11491159,0.1929632,0.117923036,-0.041383494,-0.19637132,0.25097695,-0.2992393,0.079050995,0.22154644,0.44738144
WMC287309,0.7325758,0.45397553,0.15036258,-0.007896098,0.58218986,0.55635947,0.20836577,0.6762046,0.7095913,-0.31696057,0.5699497,0.04825735,-0.26010722,-0.17220643,0.1879975,-0.8303757,0.50369805,0.21804371,0.4793721,1.5216432,-0.11491159,0.1929632,0.117923036,-0.041383494,-0.19637132,0.25097695,-0.2992393,0.079050995,0.22154644,0.44738144
WMC287025,0.7325758,0.45397553,0.15036258,-0.007896098,0.58218986,0.55635947,0.20836577,0.6762046,0.7095913,-0.31696057,0.5699497,0.04825735,-0.26010722,-0.17220643,0.1879975,-0.8303757,0.50369805,0.21804371,0.4793721,1.5216432,-0.11491159,0.1929632,0.117923036,-0.041383494,-0.19637132,0.25097695,-0.2992393,0.079050995,0.22154644,0.44738144
WMC287625,0.7325758,0.45397553,0.15036258,-0.007896098,0.58218986,0.55635947,0.20836577,0.6762046,0.7095913,-0.31696057,0.5699497,0.04825735,-0.26010722,-0.17220643,0.1879975,-0.8303757,0.50369805,0.21804371,0.4793721,1.5216432,-0.11491159,0.1929632,0.117923036,-0.041383494,-0.19637132,0.25097695,-0.2992393,0.079050995,0.22154644,0.44738144
WMC287684,0.7325758,0.45397553,0.15036258,-0.007896098,0.58218986,0.55635947,0.20836577,0.6762046,0.7095913,-0.31696057,0.5699497,0.04825735,-0.26010722,-0.17220643,0.1879975,-0.8303757,0.50369805,0.21804371,0.4793721,1.5216432,-0.11491159,0.1929632,0.117923036,-0.041383494,-0.19637132,0.25097695,-0.2992393,0.079050995,0.22154644,0.44738144
WMC289907,0.7325758,0.45397553,0.15036258,-0.007896098,0.58218986,0.55635947,0.20836577,0.6762046,0.7095913,-0.31696057,0.5699497,0.04825735,-0.26010722,-0.17220643,0.1879975,-0.8303757,0.50369805,0.21804371,0.4793721,1.5216432,-0.11491159,0.1929632,0.117923036,-0.041383494,-0.19637132,0.25097695,-0.2992393,0.079050995,0.22154644,0.44738144
WMC330614,-0.5675477,0.30734012,0.36242336,0.20246874,0.47044003,0.4068584,0.06700498,1.1591249,0.19037713,0.51840913,0.43012175,-0.5605931,-0.53756434,0.23489131,-0.104692176,0.16367489,0.1055294,0.15358333,0.36532137,1.2362243,-0.4513421,0.20913553,-0.2945525,0.5023138,-0.2880255,0.063898385,0.10634654,0.09123729,0.07778028,-0.03710163
WMC330618,-0.5675477,0.30734012,0.36242336,0.20246874,0.47044003,0.4068584,0.06700498,1.1591249,0.19037713,0.51840913,0.43012175,-0.5605931,-0.53756434,0.23489131,-0.104692176,0.16367489,0.1055294,0.15358333,0.36532137,1.2362243,-0.4513421,0.20913553,-0.2945525,0.5023138,-0.2880255,0.063898385,0.10634654,0.09123729,0.07778028,-0.03710163
WMC694008,-0.82520443,0.4363754,-0.50813895,0.4628515,0.04077836,0.96762323,0.28494906,0.24955751,1.7931935,-0.32523412,0.37519762,-0.036157887,-0.7621175,0.2556452,-0.850954,0.004881983,-0.09351109,0.9771617,0.11806456,0.3862073,0.16230072,0.66410166,0.3026422,0.9499757,0.33782423,0.46039575,-0.4154992,0.060298692,0.68486583,0.20104192
WMC696272,-0.82520443,0.4363754,-0.50813895,0.4628515,0.04077836,0.96762323,0.28494906,0.24955751,1.7931935,-0.32523412,0.37519762,-0.036157887,-0.7621175,0.2556452,-0.850954,0.004881983,-0.09351109,0.9771617,0.11806456,0.3862073,0.16230072,0.66410166,0.3026422,0.9499757,0.33782423,0.46039575,-0.4154992,0.060298692,0.68486583,0.20104192
WMC696015,-0.82520443,0.4363754,-0.50813895,0.4628515,0.04077836,0.96762323,0.28494906,0.24955751,1.7931935,-0.32523412,0.37519762,-0.036157887,-0.7621175,0.2556452,-0.850954,0.004881983,-0.09351109,0.9771617,0.11806456,0.3862073,0.16230072,0.66410166,0.3026422,0.9499757,0.33782423,0.46039575,-0.4154992,0.060298692,0.68486583,0.20104192
WMC696431,-0.82520443,0.4363754,-0.50813895,0.4628515,0.04077836,0.96762323,0.28494906,0.24955751,1.7931935,-0.32523412,0.37519762,-0.036157887,-0.7621175,0.2556452,-0.850954,0.004881983,-0.09351109,0.9771617,0.11806456,0.3862073,0.16230072,0.66410166,0.3026422,0.9499757,0.33782423,0.46039575,-0.4154992,0.060298692,0.68486583,0.20104192
WMC696429,-0.82520443,0.4363754,-0.50813895,0.4628515,0.04077836,0.96762323,0.28494906,0.24955751,1.7931935,-0.32523412,0.37519762,-0.036157887,-0.7621175,0.2556452,-0.850954,0.004881983,-0.09351109,0.9771617,0.11806456,0.3862073,0.16230072,0.66410166,0.3026422,0.9499757,0.33782423,0.46039575,-0.4154992,0.060298692,0.68486583,0.20104192
W692878,-0.5826493,-0.75722766,-0.3056882,0.42549416,0.011062992,0.7970271,-0.38597617,0.27384344,0.7364761,0.024747193,-0.75823,0.0021494722,0.3119681,0.29357794,-0.46019787,0.32620877,0.15298535,-0.124945104,0.4303153,1.4072908,-0.3405116,0.48298204,-0.6183998,0.18027544,0.021362921,0.054060083,-0.23564956,-0.31068757,0.045409612,0.018307198
W694279,-0.5826493,-0.75722766,-0.3056882,0.42549416,0.011062992,0.7970271,-0.38597617,0.27384344,0.7364761,0.024747193,-0.75823,0.0021494722,0.3119681,0.29357794,-0.46019787,0.32620877,0.15298535,-0.124945104,0.4303153,1.4072908,-0.3405116,0.48298204,-0.6183998,0.18027544,0.021362921,0.054060083,-0.23564956,-0.31068757,0.045409612,0.018307198
WMC286653,-0.6023766,0.69360036,0.047872055,0.32559386,0.017267587,1.2869068,0.31783858,0.012513887,0.85314286,-0.19222043,-0.80975723,0.10337949,0.33806095,0.21048455,0.045892842,0.28079104,0.19228527,0.1232083,0.8978421,0.7088163,-0.52483666,0.59830606,0.11260357,0.35502553,0.057169672,0.06999394,-0.23323749,-0.15518734,0.056777008,0.16296591
WMC286722,-0.6023766,0.69360036,0.047872055,0.32559386,0.017267587,1.2869068,0.31783858,0.012513887,0.85314286,-0.19222043,-0.80975723,0.10337949,0.33806095,0.21048455,0.045892842,0.28079104,0.19228527,0.1232083,0.8978421,0.7088163,-0.52483666,0.59830606,0.11260357,0.35502553,0.057169672,0.06999394,-0.23323749,-0.15518734,0.056777008,0.16296591
WMC287630,-0.6023766,0.69360036,0.047872055,0.32559386,0.017267587,1.2869068,0.31783858,0.012513887,0.85314286,-0.19222043,-0.80975723,0.10337949,0.33806095,0.21048455,0.045892842,0.28079104,0.19228527,0.1232083,0.8978421,0.7088163,-0.52483666,0.59830606,0.11260357,0.35502553,0.057169672,0.06999394,-0.23323749,-0.15518734,0.056777008,0.16296591
WMC289988,-0.6023766,0.69360036,0.047872055,0.32559386,0.017267587,1.2869068,0.31783858,0.012513887,0.85314286,-0.19222043,-0.80975723,0.10337949,0.33806095,0.21048455,0.045892842,0.28079104,0.19228527,0.1232083,0.8978421,0.7088163,-0.52483666,0.59830606,0.11260357,0.35502553,0.057169672,0.06999394,-0.23323749,-0.15518734,0.056777008,0.16296591
WMC290156,-0.6023766,0.69360036,0.047872055,0.32559386,0.017267587,1.2869068,0.31783858,0.012513887,0.85314286,-0.19222043,-0.80975723,0.10337949,0.33806095,0.21048455,0.045892842,0.28079104,0.19228527,0.1232083,0.8978421,0.7088163,-0.52483666,0.59830606,0.11260357,0.35502553,0.057169672,0.06999394,-0.23323749,-0.15518734,0.056777008,0.16296591
WMC290417,-0.6023766,0.69360036,0.047872055,0.32559386,0.017267587,1.2869068,0.31783858,0.012513887,0.85314286,-0.19222043,-0.80975723,0.10337949,0.33806095,0.21048455,0.045892842,0.28079104,0.19228527,0.1232083,0.8978421,0.7088163,-0.52483666,0.59830606,0.11260357,0.35502553,0.057169672,0.06999394,-0.23323749,-0.15518734,0.056777008,0.16296591
WMC291069,-0.60237646,0.6936003,0.047872078,0.32559377,0.017267596,1.286907,0.31783864,0.012513919,0.85314286,-0.19222066,-0.8097571,0.103379495,0.33806092,0.21048455,0.04589281,0.28079107,0.19228527,0.12320831,0.8978422,0.7088163,-0.5248368,0.598306,0.11260357,0.35502553,0.057169672,0.069993936,-0.23323749,-0.15518734,0.056777027,0.16296597
W688865,0.25802094,0.34753755,0.61704093,0.15603665,0.42484805,0.35198998,-0.005613124,0.30569413,0.036013175,-0.567941,0.17919151,0.07385629,-0.7367244,0.22140288,-0.29134044,0.05176543,-0.16408744,-0.14455213,1.2288868,0.9915809,-0.3045741,1.3044257,0.3348089,0.35629135,-0.21744664,0.46869203,0.36898014,-0.19549662,-0.559787,-0.0012203946
W688552,0.258021,0.34753755,0.61704093,0.15603666,0.42484802,0.35198998,-0.005613124,0.30569416,0.036013182,-0.56794095,0.17919149,0.07385629,-0.7367244,0.22140284,-0.29134044,0.0517654,-0.16408755,-0.144552,1.2288868,0.9915811,-0.3045742,1.3044255,0.3348089,0.35629135,-0.21744674,0.46869197,0.36898014,-0.19549662,-0.559787,-0.00122029
W689193,0.258021,0.34753755,0.61704093,0.15603666,0.42484802,0.35198998,-0.005613124,0.30569416,0.036013182,-0.56794095,0.17919149,0.07385629,-0.7367244,0.22140284,-0.29134044,0.0517654,-0.16408755,-0.144552,1.2288868,0.9915811,-0.3045742,1.3044255,0.3348089,0.35629135,-0.21744674,0.46869197,0.36898014,-0.19549662,-0.559787,-0.00122029
W688952,0.258021,0.34753755,0.61704093,0.15603666,0.42484802,0.35198998,-0.005613124,0.30569416,0.036013182,-0.56794095,0.17919149,0.07385629,-0.7367244,0.22140284,-0.29134044,0.0517654,-0.16408755,-0.144552,1.2288868,0.9915811,-0.3045742,1.3044255,0.3348089,0.35629135,-0.21744674,0.46869197,0.36898014,-0.19549662,-0.559787,-0.00122029
W689732,0.258021,0.34753755,0.61704093,0.15603666,0.42484802,0.35198998,-0.005613124,0.30569416,0.036013182,-0.56794095,0.17919149,0.07385629,-0.7367244,0.22140284,-0.29134044,0.0517654,-0.16408755,-0.144552,1.2288868,0.9915811,-0.3045742,1.3044255,0.3348089,0.35629135,-0.21744674,0.46869197,0.36898014,-0.19549662,-0.559787,-0.00122029
W689935,0.258021,0.34753755,0.61704093,0.15603666,0.42484802,0.35198998,-0.005613124,0.30569416,0.036013182,-0.56794095,0.17919149,0.07385629,-0.7367244,0.22140284,-0.29134044,0.0517654,-0.16408755,-0.144552,1.2288868,0.9915811,-0.3045742,1.3044255,0.3348089,0.35629135,-0.21744674,0.46869197,0.36898014,-0.19549662,-0.559787,-0.00122029
W690054,0.258021,0.34753755,0.61704093,0.15603666,0.42484802,0.35198998,-0.005613124,0.30569416,0.036013182,-0.56794095,0.17919149,0.07385629,-0.7367244,0.22140284,-0.29134044,0.0517654,-0.16408755,-0.144552,1.2288868,0.9915811,-0.3045742,1.3044255,0.3348089,0.35629135,-0.21744674,0.46869197,0.36898014,-0.19549662,-0.559787,-0.00122029
W689729,0.258021,0.34753755,0.61704093,0.15603666,0.42484802,0.35198998,-0.005613124,0.30569416,0.036013182,-0.56794095,0.17919149,0.07385629,-0.7367244,0.22140284,-0.29134044,0.0517654,-0.16408755,-0.144552,1.2288868,0.9915811,-0.3045742,1.3044255,0.3348089,0.35629135,-0.21744674,0.46869197,0.36898014,-0.19549662,-0.559787,-0.00122029
W691859,0.258021,0.34753755,0.61704093,0.15603666,0.42484802,0.35198998,-0.005613124,0.30569416,0.036013182,-0.56794095,0.17919149,0.07385629,-0.7367244,0.22140284,-0.29134044,0.0517654,-0.16408755,-0.144552,1.2288868,0.9915811,-0.3045742,1.3044255,0.3348089,0.35629135,-0.21744674,0.46869197,0.36898014,-0.19549662,-0.559787,-0.00122029
W692242,0.258021,0.34753755,0.61704093,0.15603666,0.42484802,0.35198998,-0.005613124,0.30569416,0.036013182,-0.56794095,0.17919149,0.07385629,-0.7367244,0.22140284,-0.29134044,0.0517654,-0.16408755,-0.144552,1.2288868,0.9915811,-0.3045742,1.3044255,0.3348089,0.35629135,-0.21744674,0.46869197,0.36898014,-0.19549662,-0.559787,-0.00122029
W692958,0.258021,0.34753755,0.61704093,0.15603666,0.42484802,0.35198998,-0.005613124,0.30569416,0.036013182,-0.56794095,0.17919149,0.07385629,-0.7367244,0.22140284,-0.29134044,0.0517654,-0.16408755,-0.144552,1.2288868,0.9915811,-0.3045742,1.3044255,0.3348089,0.35629135,-0.21744674,0.46869197,0.36898014,-0.19549662,-0.559787,-0.00122029
W695214,0.258021,0.34753755,0.61704093,0.15603666,0.42484802,0.35198998,-0.005613124,0.30569416,0.036013182,-0.56794095,0.17919149,0.07385629,-0.7367244,0.22140284,-0.29134044,0.0517654,-0.16408755,-0.144552,1.2288868,0.9915811,-0.3045742,1.3044255,0.3348089,0.35629135,-0.21744674,0.46869197,0.36898014,-0.19549662,-0.559787,-0.00122029
WMC0036043,0.8678494,0.11808147,0.45018423,0.22785552,-0.4840031,0.18974991,0.47461152,0.29822296,0.5372127,0.023848917,0.025461849,-0.14014618,-0.43358088,0.011449386,-0.29414898,0.10410111,0.5305518,0.34409666,0.99878573,0.3460417,-0.27771702,1.1559135,0.20987065,0.18924023,0.045106918,0.2469789,0.063183494,0.27518776,0.056399904,0.19864203
WMC0036097,0.8678494,0.11808147,0.45018423,0.22785552,-0.4840031,0.18974991,0.47461152,0.29822296,0.5372127,0.023848917,0.025461849,-0.14014618,-0.43358088,0.011449386,-0.29414898,0.10410111,0.5305518,0.34409666,0.99878573,0.3460417,-0.27771702,1.1559135,0.20987065,0.18924023,0.045106918,0.2469789,0.063183494,0.27518776,0.056399904,0.19864203
WMC0038715,0.8678494,0.11808147,0.45018423,0.22785552,-0.4840031,0.18974991,0.47461152,0.29822296,0.5372127,0.023848917,0.025461849,-0.14014618,-0.43358088,0.011449386,-0.29414898,0.10410111,0.5305518,0.34409666,0.99878573,0.3460417,-0.27771702,1.1559135,0.20987065,0.18924023,0.045106918,0.2469789,0.063183494,0.27518776,0.056399904,0.19864203
W689472,-0.24785163,-0.14281383,0.33554572,0.12059583,-0.11727766,0.7381278,-0.6076966,0.7571531,0.5763472,0.41821203,0.11465938,-0.050180376,-0.44456506,-0.08337991,0.0527669,0.36823505,0.56962425,-0.085636795,0.40421483,1.1736466,-0.17288527,0.107448,0.18709408,0.3499242,-0.16671214,0.21990843,0.33467558,-0.044450093,0.38444486,0.10246214
W689230,-0.22828841,-0.055958647,0.39202043,0.027204122,-0.019491106,0.7873295,-0.07018485,0.55150163,0.60957974,0.37300536,0.13724071,-0.059892707,-0.47508395,-0.038918916,0.13263375,0.33462733,0.59050816,0.02313998,0.3904526,1.4055388,-0.24915648,-0.016224982,0.68464106,0.420143,-0.106037796,0.17945011,0.25305936,-0.0009911122,0.35868248,0.14471161
W689783,-0.22828841,-0.055958647,0.39202043,0.027204122,-0.019491106,0.7873295,-0.07018485,0.55150163,0.60957974,0.37300536,0.13724071,-0.059892707,-0.47508395,-0.038918916,0.13263375,0.33462733,0.59050816,0.02313998,0.3904526,1.4055388,-0.24915648,-0.016224982,0.68464106,0.420143,-0.106037796,0.17945011,0.25305936,-0.0009911122,0.35868248,0.14471161
W692047,-0.22828841,-0.055958647,0.39202043,0.027204122,-0.019491106,0.7873295,-0.07018485,0.55150163,0.60957974,0.37300536,0.13724071,-0.059892707,-0.47508395,-0.038918916,0.13263375,0.33462733,0.59050816,0.02313998,0.3904526,1.4055388,-0.24915648,-0.016224982,0.68464106,0.420143,-0.106037796,0.17945011,0.25305936,-0.0009911122,0.35868248,0.14471161
W692035,-0.22828841,-0.055958647,0.39202043,0.027204122,-0.019491106,0.7873295,-0.07018485,0.55150163,0.60957974,0.37300536,0.13724071,-0.059892707,-0.47508395,-0.038918916,0.13263375,0.33462733,0.59050816,0.02313998,0.3904526,1.4055388,-0.24915648,-0.016224982,0.68464106,0.420143,-0.106037796,0.17945011,0.25305936,-0.0009911122,0.35868248,0.14471161
W692720,-0.22828841,-0.055958647,0.39202043,0.027204122,-0.019491106,0.7873295,-0.07018485,0.55150163,0.60957974,0.37300536,0.13724071,-0.059892707,-0.47508395,-0.038918916,0.13263375,0.33462733,0.59050816,0.02313998,0.3904526,1.4055388,-0.24915648,-0.016224982,0.68464106,0.420143,-0.106037796,0.17945011,0.25305936,-0.0009911122,0.35868248,0.14471161
W694754,-0.22828841,-0.055958647,0.39202043,0.027204122,-0.019491106,0.7873295,-0.07018485,0.55150163,0.60957974,0.37300536,0.13724071,-0.059892707,-0.47508395,-0.038918916,0.13263375,0.33462733,0.59050816,0.02313998,0.3904526,1.4055388,-0.24915648,-0.016224982,0.68464106,0.420143,-0.106037796,0.17945011,0.25305936,-0.0009911122,0.35868248,0.14471161
W689560,-0.122424364,-0.007843073,-0.22493614,-0.02457451,-0.44278133,1.2102461,-0.6185002,0.32658076,-0.29353145,-0.27542326,0.24823797,0.40289396,-0.029404217,-0.76034015,0.0018680594,-0.27870625,0.32122067,0.028495874,0.011598438,0.28361478,-0.7624423,0.54134685,-0.1128776,0.1357195,-0.28464463,-0.21577838,0.47899354,-0.3984164,-0.21630494,0.12061983
W694426,0.47192353,0.6044596,0.13728328,0.3912722,-0.38453686,0.1313503,0.13937053,1.1982276,0.58574444,0.22137518,-0.49103585,-0.4853371,0.22522618,-0.4033483,-0.07805527,0.25316074,0.47922108,0.67845744,0.8639978,-0.04972275,-0.33259517,0.54028034,0.36755034,0.16293469,0.14118393,0.23781948,0.37593502,0.19157696,0.08060012,0.06557958
W694359,0.47192353,0.6044596,0.13728328,0.3912722,-0.38453686,0.1313503,0.13937053,1.1982276,0.58574444,0.22137518,-0.49103585,-0.4853371,0.22522618,-0.4033483,-0.07805527,0.25316074,0.47922108,0.67845744,0.8639978,-0.04972275,-0.33259517,0.54028034,0.36755034,0.16293469,0.14118393,0.23781948,0.37593502,0.19157696,0.08060012,0.06557958
WMC0038752,-0.2926491,-0.8271001,0.10646184,-0.20772089,0.008184349,0.8107539,-0.21852484,0.8006722,0.7132746,0.7703935,0.69413096,0.09943306,-0.16556069,0.2534219,0.019308144,0.00069438096,-0.097946994,0.24388616,0.7967442,1.4339216,-0.50964,-0.4768085,0.09538507,0.22781406,-0.1030785,0.12059151,0.02428748,0.021583265,0.44349602,0.31952888
W691803,-0.46374726,-0.3944457,-0.16521813,0.5541067,-0.45143077,1.35561,-0.2337565,-0.120507106,0.7561207,-0.12696914,-0.78637743,0.1723078,0.32304624,0.2287338,-0.13932054,0.29662102,0.047953296,0.09444996,0.8869769,0.52149254,-0.3252686,0.9196682,-0.6662644,0.18718012,0.023110395,0.06233049,-0.20634039,-0.24424398,0.07773609,0.07255832
WMC0110430,-0.56509376,-0.6634006,0.5540402,0.13720447,0.44284293,0.42534155,0.2506968,1.1071315,0.3541624,0.444969,0.09595881,-0.6747305,-0.5052331,0.0006852688,-0.017729884,0.085670866,0.16423629,0.041914698,0.60144764,1.0800169,-0.45505935,0.3601322,0.4145825,0.33513114,-0.13519502,0.15629275,0.25468463,0.036261037,0.1416104,-0.055659886
WMC0036047,-0.81115615,-0.23244852,0.04803483,0.17630933,0.5663286,0.34865218,-0.7202588,0.8192035,0.6037628,-0.31029066,-0.7353841,-0.47183606,0.13066714,0.07188675,-0.6444424,0.0028251435,0.9435338,0.07164386,0.4760979,0.8842175,-0.37968203,0.65450114,-0.16936314,0.21030214,0.029544236,-0.23655327,-0.14881626,-0.09783015,-0.106752366,0.0024363415
W694868,0.59731454,-0.42061365,0.0794492,0.2462624,-0.39632228,0.90682316,0.37986547,1.1082345,-0.090086944,0.6380209,0.33002582,0.1338587,-0.23459871,0.5161098,0.28735057,-0.540927,0.3272508,-0.19160333,1.1960989,1.3820463,0.20863874,0.0751851,0.27796084,0.25402606,0.043567806,0.3359646,0.27273315,0.07866391,-0.52433294,0.017711818
W689958,0.604075,0.344921,-0.43474177,0.039771475,-0.31571892,1.0350064,0.058979627,0.86473346,0.54110044,0.29877982,-0.1324976,0.04922535,0.03346238,0.11721643,-0.17563854,0.32085484,-0.15530607,-0.22329839,0.7049873,1.5484383,-0.37068948,0.21829979,0.63938886,0.2986592,0.318371,0.22007865,-0.07327314,0.26699474,0.058545575,0.056666773
WMC287061,-0.46496764,0.1341745,0.476441,0.5101791,-0.65789735,0.32496694,0.4378342,0.3671803,0.3496023,0.36230636,0.49242997,-0.06616843,-0.5526497,0.15741086,0.36211172,0.45367688,-0.10622967,0.3243264,1.0081902,0.7039052,-0.43400225,1.0234609,0.33503443,0.53931606,-0.11151678,0.07223569,0.11937737,-0.26260114,0.12114218,0.10234719
W689261,-0.65794224,0.8286208,-0.36759177,0.58238614,-0.5351901,0.3503813,0.22746849,0.88847595,0.508101,-0.53900373,0.37791637,0.45148638,-0.39133728,0.017630998,-0.016659133,0.33135018,0.03201293,0.21703333,0.23918697,0.43055823,-0.37544572,1.1664318,0.35406217,0.23922141,0.2717436,0.3263787,0.18607512,-0.24853736,0.037473075,0.080634505
W689086,0.6965793,-0.024525048,-0.31395087,0.1057022,0.17040336,0.6912618,0.3858196,0.70673895,1.0085535,-0.6907756,-0.837503,0.07622268,0.23118265,-0.65499103,-0.5576202,0.06863192,0.12710765,-0.38631842,0.24656236,1.2384691,-0.47930703,1.1786147,0.24983105,-0.4507384,-0.0042657224,0.1097404,-0.77558666,0.22420451,0.117225476,0.18957499
W691940,0.7323947,0.09714569,-0.2632178,0.63147527,-0.7091231,-0.30179012,-0.088620394,-0.40180892,-0.38518617,-0.3544166,-0.40510577,-0.09771572,-0.7081639,0.40229842,0.27210543,-0.5984953,0.2746744,0.45664597,0.5971209,0.0656246,0.104856744,0.98541737,-0.6464704,-0.26629198,0.0009848238,0.31729645,0.24281359,0.40974838,0.11944705,0.054260734
W684174,-0.18357572,0.07231012,0.4300951,0.14707743,-0.38274968,0.8946513,-0.12356596,0.32919577,0.5701479,0.33691618,0.071949884,0.08909391,-0.38176,-0.07709549,-0.05976025,0.3971143,0.49125686,-0.3120722,0.66111106,1.2142287,-0.017056393,0.4172009,0.4664661,0.35449174,-0.19213073,0.21184245,0.29777795,0.0700748,0.39228725,0.21083638
WMC291793,-0.64956737,0.45111758,-0.034249537,0.27363276,0.116839364,1.1910772,0.29649898,0.13632797,0.79050034,-0.16433811,-0.7992418,0.049379073,0.33406875,0.23236288,-0.45336604,0.34163058,0.19904439,-0.3682748,0.73365206,1.020472,-0.30337444,0.48664337,0.2326911,0.28068918,0.030585831,0.04299251,-0.2514884,-0.19182454,0.053843953,0.17187765
W686740,-0.50750005,-0.5431254,-0.31074795,0.14572883,0.070084676,0.73075885,0.34495836,0.69112015,-0.053527083,-0.5197967,0.25450152,-0.05051738,-0.15032892,-0.50569713,-0.83105797,0.31484684,0.116340816,0.20564328,-0.054009747,1.2892799,-0.14536141,0.34586993,0.24854313,0.3034582,0.21351555,0.2702193,0.15714395,-0.23956747,0.033681333,0.41703376
W840030,0.15682824,0.6925446,-0.3754319,0.40836468,0.74493027,0.4352948,0.24567309,0.7787665,-0.14670882,-0.58855057,0.18310249,0.19111404,-0.6186586,-0.57454425,0.15983678,-0.0627579,0.07125884,0.011193584,-0.29511502,1.1949548,-0.45956108,0.43652946,0.13271087,0.5828417,0.20057005,0.11774585,-0.7705581,0.1349437,0.072328776,0.19139014
W686878,0.8487082,-0.4383495,-0.12048951,-0.008930699,0.20781806,0.6577916,0.3134076,0.91959155,0.7868129,0.38834363,-0.801767,-0.09076672,0.3377996,-0.6276052,-0.055439092,0.316016,0.22224705,-0.11450248,-0.3009087,0.78535086,-0.5251059,0.7055051,0.33519748,-0.47432664,0.08780164,0.06302745,-0.6921332,0.09189628,0.18777496,0.15305665
WMC291414,-0.46595162,0.05606113,0.15006085,0.45509827,-0.5352284,0.222978,-0.038079645,-0.062385056,0.52933735,0.5596841,-0.25999585,0.19637345,0.07225364,0.116349034,0.22456293,0.108226605,0.0074900626,0.45132196,0.77390164,0.3391575,-0.27304208,1.4677525,-0.7354304,-0.24290927,0.10558528,0.51007956,0.5574636,0.3193962,-0.21667884,0.047423344
WMC291317,-0.46595162,0.05606113,0.15006085,0.45509827,-0.5352284,0.222978,-0.038079645,-0.062385056,0.52933735,0.5596841,-0.25999585,0.19637345,0.07225364,0.116349034,0.22456293,0.108226605,0.0074900626,0.45132196,0.77390164,0.3391575,-0.27304208,1.4677525,-0.7354304,-0.24290927,0.10558528,0.51007956,0.5574636,0.3193962,-0.21667884,0.047423344
WMC291508,-0.46595162,0.05606113,0.15006085,0.45509827,-0.5352284,0.222978,-0.038079645,-0.062385056,0.52933735,0.5596841,-0.25999585,0.19637345,0.07225364,0.116349034,0.22456293,0.108226605,0.0074900626,0.45132196,0.77390164,0.3391575,-0.27304208,1.4677525,-0.7354304,-0.24290927,0.10558528,0.51007956,0.5574636,0.3193962,-0.21667884,0.047423344
WMC291436,-0.46595162,0.05606113,0.15006085,0.45509827,-0.5352284,0.222978,-0.038079645,-0.062385056,0.52933735,0.5596841,-0.25999585,0.19637345,0.07225364,0.116349034,0.22456293,0.108226605,0.0074900626,0.45132196,0.77390164,0.3391575,-0.27304208,1.4677525,-0.7354304,-0.24290927,0.10558528,0.51007956,0.5574636,0.3193962,-0.21667884,0.047423344
WMC291593,-0.46595162,0.05606113,0.15006085,0.45509827,-0.5352284,0.222978,-0.038079645,-0.062385056,0.52933735,0.5596841,-0.25999585,0.19637345,0.07225364,0.116349034,0.22456293,0.108226605,0.0074900626,0.45132196,0.77390164,0.3391575,-0.27304208,1.4677525,-0.7354304,-0.24290927,0.10558528,0.51007956,0.5574636,0.3193962,-0.21667884,0.047423344
WMC291247,-0.46595162,0.05606113,0.15006085,0.45509827,-0.5352284,0.222978,-0.038079645,-0.062385056,0.52933735,0.5596841,-0.25999585,0.19637345,0.07225364,0.116349034,0.22456293,0.108226605,0.0074900626,0.45132196,0.77390164,0.3391575,-0.27304208,1.4677525,-0.7354304,-0.24290927,0.10558528,0.51007956,0.5574636,0.3193962,-0.21667884,0.047423344
WMC291511,-0.46595162,0.05606113,0.15006085,0.45509827,-0.5352284,0.222978,-0.038079645,-0.062385056,0.52933735,0.5596841,-0.25999585,0.19637345,0.07225364,0.116349034,0.22456293,0.108226605,0.0074900626,0.45132196,0.77390164,0.3391575,-0.27304208,1.4677525,-0.7354304,-0.24290927,0.10558528,0.51007956,0.5574636,0.3193962,-0.21667884,0.047423344
WMC291726,-0.46595162,0.05606113,0.15006085,0.45509827,-0.5352284,0.222978,-0.038079645,-0.062385056,0.52933735,0.5596841,-0.25999585,0.19637345,0.07225364,0.116349034,0.22456293,0.108226605,0.0074900626,0.45132196,0.77390164,0.3391575,-0.27304208,1.4677525,-0.7354304,-0.24290927,0.10558528,0.51007956,0.5574636,0.3193962,-0.21667884,0.047423344
WMC291673,-0.46595162,0.05606113,0.15006085,0.45509827,-0.5352284,0.222978,-0.038079645,-0.062385056,0.52933735,0.5596841,-0.25999585,0.19637345,0.07225364,0.116349034,0.22456293,0.108226605,0.0074900626,0.45132196,0.77390164,0.3391575,-0.27304208,1.4677525,-0.7354304,-0.24290927,0.10558528,0.51007956,0.5574636,0.3193962,-0.21667884,0.047423344
WMC291679,-0.46595162,0.05606113,0.15006085,0.45509827,-0.5352284,0.222978,-0.038079645,-0.062385056,0.52933735,0.5596841,-0.25999585,0.19637345,0.07225364,0.116349034,0.22456293,0.108226605,0.0074900626,0.45132196,0.77390164,0.3391575,-0.27304208,1.4677525,-0.7354304,-0.24290927,0.10558528,0.51007956,0.5574636,0.3193962,-0.21667884,0.047423344
WMC291967,-0.46595162,0.05606113,0.15006085,0.45509827,-0.5352284,0.222978,-0.038079645,-0.062385056,0.52933735,0.5596841,-0.25999585,0.19637345,0.07225364,0.116349034,0.22456293,0.108226605,0.0074900626,0.45132196,0.77390164,0.3391575,-0.27304208,1.4677525,-0.7354304,-0.24290927,0.10558528,0.51007956,0.5574636,0.3193962,-0.21667884,0.047423344
WMC291702,-0.46595162,0.05606113,0.15006085,0.45509827,-0.5352284,0.222978,-0.038079645,-0.062385056,0.52933735,0.5596841,-0.25999585,0.19637345,0.07225364,0.116349034,0.22456293,0.108226605,0.0074900626,0.45132196,0.77390164,0.3391575,-0.27304208,1.4677525,-0.7354304,-0.24290927,0.10558528,0.51007956,0.5574636,0.3193962,-0.21667884,0.047423344
WMC291952,-0.46595162,0.05606113,0.15006085,0.45509827,-0.5352284,0.222978,-0.038079645,-0.062385056,0.52933735,0.5596841,-0.25999585,0.19637345,0.07225364,0.116349034,0.22456293,0.108226605,0.0074900626,0.45132196,0.77390164,0.3391575,-0.27304208,1.4677525,-0.7354304,-0.24290927,0.10558528,0.51007956,0.5574636,0.3193962,-0.21667884,0.047423344
WMC291625,-0.46595162,0.05606113,0.15006085,0.45509827,-0.5352284,0.222978,-0.038079645,-0.062385056,0.52933735,0.5596841,-0.25999585,0.19637345,0.07225364,0.116349034,0.22456293,0.108226605,0.0074900626,0.45132196,0.77390164,0.3391575,-0.27304208,1.4677525,-0.7354304,-0.24290927,0.10558528,0.51007956,0.5574636,0.3193962,-0.21667884,0.047423344
WMC292088,-0.46595162,0.05606113,0.15006085,0.45509827,-0.5352284,0.222978,-0.038079645,-0.062385056,0.52933735,0.5596841,-0.25999585,0.19637345,0.07225364,0.116349034,0.22456293,0.108226605,0.0074900626,0.45132196,0.77390164,0.3391575,-0.27304208,1.4677525,-0.7354304,-0.24290927,0.10558528,0.51007956,0.5574636,0.3193962,-0.21667884,0.047423344
WMC292241,-0.46595162,0.05606113,0.15006085,0.45509827,-0.5352284,0.222978,-0.038079645,-0.062385056,0.52933735,0.5596841,-0.25999585,0.19637345,0.07225364,0.116349034,0.22456293,0.108226605,0.0074900626,0.45132196,0.77390164,0.3391575,-0.27304208,1.4677525,-0.7354304,-0.24290927,0.10558528,0.51007956,0.5574636,0.3193962,-0.21667884,0.047423344
WMC292255,-0.46595162,0.05606113,0.15006085,0.45509827,-0.5352284,0.222978,-0.038079645,-0.062385056,0.52933735,0.5596841,-0.25999585,0.19637345,0.07225364,0.116349034,0.22456293,0.108226605,0.0074900626,0.45132196,0.77390164,0.3391575,-0.27304208,1.4677525,-0.7354304,-0.24290927,0.10558528,0.51007956,0.5574636,0.3193962,-0.21667884,0.047423344
WMC292323,-0.46595162,0.05606113,0.15006085,0.45509827,-0.5352284,0.222978,-0.038079645,-0.062385056,0.52933735,0.5596841,-0.25999585,0.19637345,0.07225364,0.116349034,0.22456293,0.108226605,0.0074900626,0.45132196,0.77390164,0.3391575,-0.27304208,1.4677525,-0.7354304,-0.24290927,0.10558528,0.51007956,0.5574636,0.3193962,-0.21667884,0.047423344
WMC292334,-0.46595162,0.05606113,0.15006085,0.45509827,-0.5352284,0.222978,-0.038079645,-0.062385056,0.52933735,0.5596841,-0.25999585,0.19637345,0.07225364,0.116349034,0.22456293,0.108226605,0.0074900626,0.45132196,0.77390164,0.3391575,-0.27304208,1.4677525,-0.7354304,-0.24290927,0.10558528,0.51007956,0.5574636,0.3193962,-0.21667884,0.047423344
WMC292251,-0.46595162,0.05606113,0.15006085,0.45509827,-0.5352284,0.222978,-0.038079645,-0.062385056,0.52933735,0.5596841,-0.25999585,0.19637345,0.07225364,0.116349034,0.22456293,0.108226605,0.0074900626,0.45132196,0.77390164,0.3391575,-0.27304208,1.4677525,-0.7354304,-0.24290927,0.10558528,0.51007956,0.5574636,0.3193962,-0.21667884,0.047423344
WMC292028,-0.46595162,0.05606113,0.15006085,0.45509827,-0.5352284,0.222978,-0.038079645,-0.062385056,0.52933735,0.5596841,-0.25999585,0.19637345,0.07225364,0.116349034,0.22456293,0.108226605,0.0074900626,0.45132196,0.77390164,0.3391575,-0.27304208,1.4677525,-0.7354304,-0.24290927,0.10558528,0.51007956,0.5574636,0.3193962,-0.21667884,0.047423344
WMC292277,-0.46595162,0.05606113,0.15006085,0.45509827,-0.5352284,0.222978,-0.038079645,-0.062385056,0.52933735,0.5596841,-0.25999585,0.19637345,0.07225364,0.116349034,0.22456293,0.108226605,0.0074900626,0.45132196,0.77390164,0.3391575,-0.27304208,1.4677525,-0.7354304,-0.24290927,0.10558528,0.51007956,0.5574636,0.3193962,-0.21667884,0.047423344
WMC292474,-0.46595162,0.05606113,0.15006085,0.45509827,-0.5352284,0.222978,-0.038079645,-0.062385056,0.52933735,0.5596841,-0.25999585,0.19637345,0.07225364,0.116349034,0.22456293,0.108226605,0.0074900626,0.45132196,0.77390164,0.3391575,-0.27304208,1.4677525,-0.7354304,-0.24290927,0.10558528,0.51007956,0.5574636,0.3193962,-0.21667884,0.047423344
WMC292613,-0.46595162,0.05606113,0.15006085,0.45509827,-0.5352284,0.222978,-0.038079645,-0.062385056,0.52933735,0.5596841,-0.25999585,0.19637345,0.07225364,0.116349034,0.22456293,0.108226605,0.0074900626,0.45132196,0.77390164,0.3391575,-0.27304208,1.4677525,-0.7354304,-0.24290927,0.10558528,0.51007956,0.5574636,0.3193962,-0.21667884,0.047423344
WMC292385,-0.46595162,0.05606113,0.15006085,0.45509827,-0.5352284,0.222978,-0.038079645,-0.062385056,0.52933735,0.5596841,-0.25999585,0.19637345,0.07225364,0.116349034,0.22456293,0.108226605,0.0074900626,0.45132196,0.77390164,0.3391575,-0.27304208,1.4677525,-0.7354304,-0.24290927,0.10558528,0.51007956,0.5574636,0.3193962,-0.21667884,0.047423344
WMC294989,-0.46595162,0.05606113,0.15006085,0.45509827,-0.5352284,0.222978,-0.038079645,-0.062385056,0.52933735,0.5596841,-0.25999585,0.19637345,0.07225364,0.116349034,0.22456293,0.108226605,0.0074900626,0.45132196,0.77390164,0.3391575,-0.27304208,1.4677525,-0.7354304,-0.24290927,0.10558528,0.51007956,0.5574636,0.3193962,-0.21667884,0.047423344
WMC295009,-0.46595162,0.05606113,0.15006085,0.45509827,-0.5352284,0.222978,-0.038079645,-0.062385056,0.52933735,0.5596841,-0.25999585,0.19637345,0.07225364,0.116349034,0.22456293,0.108226605,0.0074900626,0.45132196,0.77390164,0.3391575,-0.27304208,1.4677525,-0.7354304,-0.24290927,0.10558528,0.51007956,0.5574636,0.3193962,-0.21667884,0.047423344
WMC294985,-0.46595162,0.05606117,0.15006083,0.45509824,-0.5352285,0.22297797,-0.038079645,-0.062385056,0.52933735,0.559684,-0.25999603,0.19637345,0.072253644,0.11634904,0.2245629,0.10822663,0.0074900547,0.45132196,0.77390164,0.33915752,-0.27304208,1.4677529,-0.73543054,-0.24290915,0.10558527,0.5100795,0.5574635,0.31939623,-0.21667884,0.047423333
WMC295055,0.5464388,0.10733731,0.0115088,0.5677218,-0.37040412,0.27633676,0.0017256894,0.12066225,0.5093812,0.53668183,-0.3593374,0.2018216,0.119785726,0.15310694,0.47073263,0.17016801,-0.41728655,0.252472,0.5802093,0.31841385,-0.41633114,1.4773965,-0.77264196,-0.052957226,0.090523824,0.5052143,0.51599693,0.09347187,-0.1259577,0.022875125
W688661,0.7991311,0.75534153,0.67452693,0.3527139,-0.35521322,0.13747315,0.3713624,0.033819854,-0.092232116,-0.29348302,0.20448591,0.07608439,-0.60822463,0.23392706,0.14563693,0.033104133,0.0778127,0.5916221,1.1288033,0.56750524,-0.15120465,1.0083106,0.21818006,0.34283647,-0.2740358,0.4249781,0.44398713,-0.11462771,-0.48245177,0.0075212624
W691628,0.7991311,0.75534153,0.67452693,0.3527139,-0.35521322,0.13747315,0.3713624,0.033819854,-0.092232116,-0.29348302,0.20448591,0.07608439,-0.60822463,0.23392706,0.14563693,0.033104133,0.0778127,0.5916221,1.1288033,0.56750524,-0.15120465,1.0083106,0.21818006,0.34283647,-0.2740358,0.4249781,0.44398713,-0.11462771,-0.48245177,0.0075212624
W694032,0.7991311,0.75534153,0.67452693,0.3527139,-0.35521322,0.13747315,0.3713624,0.033819854,-0.092232116,-0.29348302,0.20448591,0.07608439,-0.60822463,0.23392706,0.14563693,0.033104133,0.0778127,0.5916221,1.1288033,0.56750524,-0.15120465,1.0083106,0.21818006,0.34283647,-0.2740358,0.4249781,0.44398713,-0.11462771,-0.48245177,0.0075212624
WMC693565,0.3927311,-0.47991332,0.39155385,0.26300803,-0.27581066,0.93747526,-0.34748483,0.090152346,0.37745318,0.5055556,-0.034266934,0.06937159,-0.13594711,0.0773247,-0.6631939,0.40825805,-0.095599264,0.06936319,0.70312995,1.4100573,0.030544126,1.0457399,-0.6421223,0.040083945,0.10165436,0.17888793,0.07480266,-0.12250579,0.025927994,-0.0055098003
WMC693447,0.3927311,-0.47991332,0.39155385,0.26300803,-0.27581066,0.93747526,-0.34748483,0.090152346,0.37745318,0.5055556,-0.034266934,0.06937159,-0.13594711,0.0773247,-0.6631939,0.40825805,-0.095599264,0.06936319,0.70312995,1.4100573,0.030544126,1.0457399,-0.6421223,0.040083945,0.10165436,0.17888793,0.07480266,-0.12250579,0.025927994,-0.0055098003
WMC693574,0.3927311,-0.47991332,0.39155385,0.26300803,-0.27581066,0.93747526,-0.34748483,0.090152346,0.37745318,0.5055556,-0.034266934,0.06937159,-0.13594711,0.0773247,-0.6631939,0.40825805,-0.095599264,0.06936319,0.70312995,1.4100573,0.030544126,1.0457399,-0.6421223,0.040083945,0.10165436,0.17888793,0.07480266,-0.12250579,0.025927994,-0.0055098003
WMC693998,0.3927311,-0.47991332,0.39155385,0.26300803,-0.27581066,0.93747526,-0.34748483,0.090152346,0.37745318,0.5055556,-0.034266934,0.06937159,-0.13594711,0.0773247,-0.6631939,0.40825805,-0.095599264,0.06936319,0.70312995,1.4100573,0.030544126,1.0457399,-0.6421223,0.040083945,0.10165436,0.17888793,0.07480266,-0.12250579,0.025927994,-0.0055098003
WMC694624,0.3927311,-0.47991332,0.39155385,0.26300803,-0.27581066,0.93747526,-0.34748483,0.090152346,0.37745318,0.5055556,-0.034266934,0.06937159,-0.13594711,0.0773247,-0.6631939,0.40825805,-0.095599264,0.06936319,0.70312995,1.4100573,0.030544126,1.0457399,-0.6421223,0.040083945,0.10165436,0.17888793,0.07480266,-0.12250579,0.025927994,-0.0055098003
WMC694507,0.3927311,-0.47991332,0.39155385,0.26300803,-0.27581066,0.93747526,-0.34748483,0.090152346,0.37745318,0.5055556,-0.034266934,0.06937159,-0.13594711,0.0773247,-0.6631939,0.40825805,-0.095599264,0.06936319,0.70312995,1.4100573,0.030544126,1.0457399,-0.6421223,0.040083945,0.10165436,0.17888793,0.07480266,-0.12250579,0.025927994,-0.0055098003
WMC695982,0.3927311,-0.47991332,0.39155385,0.26300803,-0.27581066,0.93747526,-0.34748483,0.090152346,0.37745318,0.5055556,-0.034266934,0.06937159,-0.13594711,0.0773247,-0.6631939,0.40825805,-0.095599264,0.06936319,0.70312995,1.4100573,0.030544126,1.0457399,-0.6421223,0.040083945,0.10165436,0.17888793,0.07480266,-0.12250579,0.025927994,-0.0055098003
WMC696265,0.3927311,-0.47991332,0.39155385,0.26300803,-0.27581066,0.93747526,-0.34748483,0.090152346,0.37745318,0.5055556,-0.034266934,0.06937159,-0.13594711,0.0773247,-0.6631939,0.40825805,-0.095599264,0.06936319,0.70312995,1.4100573,0.030544126,1.0457399,-0.6421223,0.040083945,0.10165436,0.17888793,0.07480266,-0.12250579,0.025927994,-0.0055098003
WMC696128,0.3927311,-0.47991332,0.39155385,0.26300803,-0.27581066,0.93747526,-0.34748483,0.090152346,0.37745318,0.5055556,-0.034266934,0.06937159,-0.13594711,0.0773247,-0.6631939,0.40825805,-0.095599264,0.06936319,0.70312995,1.4100573,0.030544126,1.0457399,-0.6421223,0.040083945,0.10165436,0.17888793,0.07480266,-0.12250579,0.025927994,-0.0055098003
WMC696668,0.3927311,-0.47991332,0.39155385,0.26300803,-0.27581066,0.93747526,-0.34748483,0.090152346,0.37745318,0.5055556,-0.034266934,0.06937159,-0.13594711,0.0773247,-0.6631939,0.40825805,-0.095599264,0.06936319,0.70312995,1.4100573,0.030544126,1.0457399,-0.6421223,0.040083945,0.10165436,0.17888793,0.07480266,-0.12250579,0.025927994,-0.0055098003
WMC696713,0.3927311,-0.47991332,0.39155385,0.26300803,-0.27581066,0.93747526,-0.34748483,0.090152346,0.37745318,0.5055556,-0.034266934,0.06937159,-0.13594711,0.0773247,-0.6631939,0.40825805,-0.095599264,0.06936319,0.70312995,1.4100573,0.030544126,1.0457399,-0.6421223,0.040083945,0.10165436,0.17888793,0.07480266,-0.12250579,0.025927994,-0.0055098003
WMC696505,0.3927311,-0.47991332,0.39155385,0.26300803,-0.27581066,0.93747526,-0.34748483,0.090152346,0.37745318,0.5055556,-0.034266934,0.06937159,-0.13594711,0.0773247,-0.6631939,0.40825805,-0.095599264,0.06936319,0.70312995,1.4100573,0.030544126,1.0457399,-0.6421223,0.040083945,0.10165436,0.17888793,0.07480266,-0.12250579,0.025927994,-0.0055098003
W693291,-0.8725759,-0.5830988,0.37353244,0.49492794,-0.38455743,0.4251263,-0.10208927,0.1675556,0.6317981,-0.09490827,-0.34261233,0.024377914,0.21214268,-0.15920743,-0.112054676,0.025640659,0.39104754,0.39562073,0.20389333,0.8592554,-0.2769929,0.57957184,-0.013820766,0.100408666,0.22381985,0.14932156,0.27440646,-0.18709145,0.11173892,0.13398096
WMC0034899,1.0965102,0.6164481,-0.29745018,0.10982701,-0.11363482,0.85049576,0.053643733,0.7797152,-0.34368172,0.43341798,-0.31054235,0.16941208,-0.8078683,0.28232577,0.006599394,0.21999288,0.38165742,0.4792864,0.111632355,0.04948731,0.06245636,0.654619,0.4353414,-0.36178342,0.024106534,0.53557074,0.4669415,0.14386542,0.2511204,0.08801681
W695331,-0.7425462,0.4248851,-0.26152965,0.06296892,0.15623029,1.0489192,0.0722761,0.40929472,0.14202587,-0.4344517,0.47345662,0.33821404,-0.61661303,-0.0631254,0.09945883,0.087555036,0.16480067,0.29155546,0.042138558,1.3576727,-0.1481304,0.90961367,0.60328215,-0.2739282,-0.071387745,-0.36127454,0.43217075,0.10215867,-0.66329485,0.034539223
W684683,0.8214221,-0.5561708,-0.13310684,0.28164643,-0.54987746,0.7443507,-0.3762889,0.23075867,-0.34969765,-0.6372248,-0.38666278,-0.33058444,-0.8455453,0.30949548,-0.2164375,0.07964873,0.5022647,-0.10562125,0.5404915,1.2374111,0.12502177,0.4263037,-0.6438312,-0.2500866,0.1151748,0.35031456,0.2452868,0.11012571,0.04745983,0.080884345
W689852,0.5507847,-0.9700075,0.366389,0.24192937,-0.06796842,0.89541435,-0.443177,0.8512006,0.03780728,-0.4546844,-0.48166943,-0.47429425,-0.38542193,-0.79093784,-0.11313601,-0.026608922,0.11024246,0.36996606,0.85835826,0.987893,0.069917835,0.21448386,-0.55314165,-0.46387646,-0.15032065,-0.33112547,-0.33236304,-0.035311803,0.34810656,0.08953864
W689572,-0.6852264,0.28082725,0.5623129,0.1829551,-0.25688586,0.044237923,0.24476504,0.38609508,0.51991624,0.47399715,0.08783164,0.049555168,-0.5547175,-0.10199485,0.38367656,0.14121035,0.6317905,0.5455404,0.84974056,0.12488513,-0.3937095,0.5187518,0.3524474,0.4770097,-0.17834193,0.2186575,0.3459592,0.0721724,0.4072872,0.16521145
W689403,-0.6852264,0.28082725,0.5623129,0.1829551,-0.25688586,0.044237923,0.24476504,0.38609508,0.51991624,0.47399715,0.08783164,0.049555168,-0.5547175,-0.10199485,0.38367656,0.14121035,0.6317905,0.5455404,0.84974056,0.12488513,-0.3937095,0.5187518,0.3524474,0.4770097,-0.17834193,0.2186575,0.3459592,0.0721724,0.4072872,0.16521145
W695225,0.6056703,-0.33991647,0.19567807,0.12891406,0.1681608,1.0864325,0.32731506,0.6946053,0.30545726,-0.6839378,0.2491294,0.08363817,-0.42127416,0.5777219,-0.38803574,0.0006237772,0.4024672,0.15260153,0.587482,0.772737,-0.14630012,0.03654902,0.12958379,-0.28725192,0.08847505,0.17080943,0.1704078,-0.14876053,-0.31443134,0.29350844
W840350,0.91819,0.6108958,0.30647305,0.22803128,0.0047759716,0.74521345,0.22480087,0.45406902,0.5662112,0.3887331,-0.21294557,0.3310775,0.07514577,0.10068516,-0.37044898,0.23672433,0.0024891985,-0.350519,0.18250003,1.0989197,-0.4373518,0.73107433,0.3295286,0.21771887,0.047680195,0.2630034,0.005467879,0.27660266,0.16360174,0.14766522
W840517,0.91819,0.6108958,0.30647305,0.22803128,0.0047759716,0.74521345,0.22480087,0.45406902,0.5662112,0.3887331,-0.21294557,0.3310775,0.07514577,0.10068516,-0.37044898,0.23672433,0.0024891985,-0.350519,0.18250003,1.0989197,-0.4373518,0.73107433,0.3295286,0.21771887,0.047680195,0.2630034,0.005467879,0.27660266,0.16360174,0.14766522
WMC696718,-0.6114609,0.07728561,0.3701655,0.22226155,0.17573634,0.103645876,0.2333456,0.0270697,0.42449456,0.6403616,0.09345263,0.123391464,-0.2890246,0.048906438,-0.20965587,0.1538991,0.41049698,0.28031272,0.14213954,0.9738006,0.04155065,-0.059223827,0.4238531,0.27735797,-0.4225527,0.12854005,0.37614915,0.33678934,0.4128053,-0.02514824
WMC0035099,0.88616544,-0.32297808,-0.51232064,-0.0441747,-0.4285967,0.7471248,0.37877044,0.1736969,0.5687172,0.56179124,-0.811391,0.3563107,0.3132102,-0.16929607,-0.39322203,0.17778647,0.14882767,0.4646945,0.92578363,-0.10123187,0.06559252,0.5629369,0.36647972,0.07552071,0.17634642,-0.17599274,-0.009041253,0.30659539,0.14723152,0.015721194
WMC0035199,0.88616544,-0.32297808,-0.51232064,-0.0441747,-0.4285967,0.7471248,0.37877044,0.1736969,0.5687172,0.56179124,-0.811391,0.3563107,0.3132102,-0.16929607,-0.39322203,0.17778647,0.14882767,0.4646945,0.92578363,-0.10123187,0.06559252,0.5629369,0.36647972,0.07552071,0.17634642,-0.17599274,-0.009041253,0.30659539,0.14723152,0.015721194
WMC0036125,0.88616544,-0.32297808,-0.51232064,-0.0441747,-0.4285967,0.7471248,0.37877044,0.1736969,0.5687172,0.56179124,-0.811391,0.3563107,0.3132102,-0.16929607,-0.39322203,0.17778647,0.14882767,0.4646945,0.92578363,-0.10123187,0.06559252,0.5629369,0.36647972,0.07552071,0.17634642,-0.17599274,-0.009041253,0.30659539,0.14723152,0.015721194
WMC0036118,0.88616544,-0.32297808,-0.51232064,-0.0441747,-0.4285967,0.7471248,0.37877044,0.1736969,0.5687172,0.56179124,-0.811391,0.3563107,0.3132102,-0.16929607,-0.39322203,0.17778647,0.14882767,0.4646945,0.92578363,-0.10123187,0.06559252,0.5629369,0.36647972,0.07552071,0.17634642,-0.17599274,-0.009041253,0.30659539,0.14723152,0.015721194
WMC0037952,0.88616544,-0.32297808,-0.51232064,-0.0441747,-0.4285967,0.7471248,0.37877044,0.1736969,0.5687172,0.56179124,-0.811391,0.3563107,0.3132102,-0.16929607,-0.39322203,0.17778647,0.14882767,0.4646945,0.92578363,-0.10123187,0.06559252,0.5629369,0.36647972,0.07552071,0.17634642,-0.17599274,-0.009041253,0.30659539,0.14723152,0.015721194
WMC286572,0.6041326,0.12579915,-0.3843273,0.3076917,-0.33244595,-0.035173375,0.4453417,-0.006312603,0.6904083,0.4793837,-0.89251244,-0.057187006,0.3008537,-0.049644157,0.17662619,0.010637326,0.38355035,0.124455996,0.11654803,0.09719586,-0.28611305,1.16851,0.4048897,0.25546053,-0.043781422,-0.10441584,-0.078132816,0.3784923,0.20378509,0.115613155
WMC289572,0.6041326,0.12579915,-0.3843273,0.3076917,-0.33244595,-0.035173375,0.4453417,-0.006312603,0.6904083,0.4793837,-0.89251244,-0.057187006,0.3008537,-0.049644157,0.17662619,0.010637326,0.38355035,0.124455996,0.11654803,0.09719586,-0.28611305,1.16851,0.4048897,0.25546053,-0.043781422,-0.10441584,-0.078132816,0.3784923,0.20378509,0.115613155
WMC289734,0.6041326,0.12579915,-0.3843273,0.3076917,-0.33244595,-0.035173375,0.4453417,-0.006312603,0.6904083,0.4793837,-0.89251244,-0.057187006,0.3008537,-0.049644157,0.17662619,0.010637326,0.38355035,0.124455996,0.11654803,0.09719586,-0.28611305,1.16851,0.4048897,0.25546053,-0.043781422,-0.10441584,-0.078132816,0.3784923,0.20378509,0.115613155
WMC291721,0.69739425,0.2404162,-0.19646844,0.48342183,-0.36831543,-0.2535363,0.53345805,0.0025787544,-0.2849549,-0.40286362,-0.36039093,-0.18183336,-0.7351508,0.41491187,0.19951414,-0.57481027,0.43229452,0.32505107,0.5206271,0.30566242,0.09483345,0.79065055,0.27266344,-0.21836355,0.00541002,0.32741153,0.21444784,0.3752439,0.05301311,0.086223006
WMC292676,0.69739425,0.2404162,-0.19646844,0.48342183,-0.36831543,-0.2535363,0.53345805,0.0025787544,-0.2849549,-0.40286362,-0.36039093,-0.18183336,-0.7351508,0.41491187,0.19951414,-0.57481027,0.43229452,0.32505107,0.5206271,0.30566242,0.09483345,0.79065055,0.27266344,-0.21836355,0.00541002,0.32741153,0.21444784,0.3752439,0.05301311,0.086223006
WMC287230,-0.5482873,-0.34860876,-0.17825894,0.45782194,0.31317705,-0.31392142,0.4418636,0.09657437,0.7315727,-0.122442074,-0.75855964,0.06657058,0.2645392,0.26829246,-0.14437765,0.26942748,0.11505858,0.31381935,0.5167005,0.120144665,-0.49957693,0.3724259,0.28902066,0.19590281,0.0213233,0.004120378,-0.2152456,-0.1676957,0.051039062,0.0020201013
WMC287699,-0.5482873,-0.3486089,-0.17825894,0.4578219,0.31317705,-0.31392142,0.4418636,0.09657435,0.7315728,-0.12244218,-0.75855964,0.06657058,0.26453918,0.26829243,-0.14437765,0.2694275,0.11505858,0.31381935,0.5167007,0.12014459,-0.49957693,0.37242597,0.28902072,0.19590287,0.0213233,0.004120372,-0.21524552,-0.1676957,0.05103904,0.0020200973
WMC287536,-0.5482873,-0.3486089,-0.17825894,0.4578219,0.31317705,-0.31392142,0.4418636,0.09657435,0.7315728,-0.12244218,-0.75855964,0.06657058,0.26453918,0.26829243,-0.14437765,0.2694275,0.11505858,0.31381935,0.5167007,0.12014459,-0.49957693,0.37242597,0.28902072,0.19590287,0.0213233,0.004120372,-0.21524552,-0.1676957,0.05103904,0.0020200973
W683798,0.6807208,0.4968724,0.10256344,0.33226177,-0.33545166,0.81562245,0.11176429,-0.33111826,0.27925533,-0.12694734,0.072367765,-0.18665269,0.14624056,0.37896395,-0.017235376,-0.6459517,0.07471644,0.5590254,0.80147034,0.3446436,0.21532118,0.26667923,0.6594267,-0.05107466,-0.34645838,0.4192094,-0.6565282,0.14906138,-0.12893648,-0.3236827
WMC292358,-0.5451403,-0.5633097,0.20425387,0.42297408,-0.6366738,-0.15225928,-0.20045617,-0.07858573,0.49769056,-0.3521497,0.043773636,0.62397456,0.0931208,-0.21467356,0.43694764,0.054742184,-0.1090191,0.2539977,0.28379434,0.22248472,-0.47865292,1.1400557,-0.5650209,-0.23969133,-0.58332306,-0.1916312,0.60609525,0.44969895,-0.25505096,0.12143109
WMC292125,0.939064,0.52641,0.20281415,0.26289433,-0.15857963,0.66118073,0.23685758,0.15892188,0.4671761,0.47618273,-0.17332014,0.42885235,0.23141256,0.18802577,-0.5405804,0.34028113,-0.20794924,-0.24027398,-0.5301993,1.3620285,-0.20848075,0.20052963,0.3657888,0.11567598,-0.0041841953,0.17366716,0.023878692,0.2037545,0.20940332,0.034908906
W839898,-0.4575695,1.4635572,-0.48305833,0.26719826,-0.36472416,0.028309032,-0.11283306,-0.27259734,0.3178697,-0.2314137,-0.27072686,0.38288018,-0.6929763,0.39030606,0.41639033,0.39857182,-0.02326169,0.44320458,-0.29924032,0.5419558,-0.318991,0.7455633,0.11210678,-0.20486848,-0.0063718096,0.29564786,0.41146806,-0.011884963,0.32494074,0.2359832
WMC0035663,0.5425539,0.295939,0.4052712,0.067416914,-0.02906302,0.33741572,0.24697927,0.41636956,-0.3565637,0.12042145,0.38379958,-0.355606,-0.500838,0.4118357,0.0700884,-0.64057726,0.13659927,0.25700256,-0.26672718,1.2645024,0.26334092,-0.26115283,0.3407736,0.1611825,-0.3078527,0.284487,0.42857444,-0.26727962,-0.4852998,-0.26332286
WMC0034903,-0.5358284,0.114323765,0.01121519,0.5232093,-0.5515631,-0.04793198,0.44740462,0.077535644,-0.10559076,0.5463268,0.06525513,0.43623614,0.08593427,-0.24270658,0.014520617,0.2727888,0.1486278,0.6107471,-0.22178048,0.27386925,0.011672009,1.008123,0.33722034,0.27099428,0.26760504,0.19672076,-0.6983229,0.12688905,0.2215685,0.34062353
WMC0035149,-0.5358284,0.114323765,0.01121519,0.5232093,-0.5515631,-0.04793198,0.44740462,0.077535644,-0.10559076,0.5463268,0.06525513,0.43623614,0.08593427,-0.24270658,0.014520617,0.2727888,0.1486278,0.6107471,-0.22178048,0.27386925,0.011672009,1.008123,0.33722034,0.27099428,0.26760504,0.19672076,-0.6983229,0.12688905,0.2215685,0.34062353
WMC0035657,0.8844566,-0.5313684,0.2960551,0.3335383,-0.36698052,0.7661325,-0.14206229,0.48694277,0.10173845,-0.15924148,0.54556274,-0.34932294,-0.5353471,0.19494736,0.012627648,-0.5191639,-0.07189975,0.15388276,0.023569113,1.4423169,0.051288445,0.4469912,0.06655885,0.31636876,-0.17498288,-0.0028225426,0.048963144,-0.19187045,0.072939195,0.043005757
W688615,-0.8590258,-0.65715045,-0.31651133,0.5234058,-0.7470095,0.046454705,-0.31078514,0.35263458,0.4413478,-0.13829987,-0.010095869,0.2541506,-0.20894496,-0.4538491,0.12142725,0.1076115,0.3611877,0.69510114,0.40144354,0.45750886,-0.1841464,0.9031295,-0.5348017,0.41599685,0.15328285,-0.061440364,0.46126872,0.09622153,0.31968674,0.07087707
W694007,-0.8590258,-0.65715045,-0.31651133,0.5234058,-0.7470095,0.046454705,-0.31078514,0.35263458,0.4413478,-0.13829987,-0.010095869,0.2541506,-0.20894496,-0.4538491,0.12142725,0.1076115,0.3611877,0.69510114,0.40144354,0.45750886,-0.1841464,0.9031295,-0.5348017,0.41599685,0.15328285,-0.061440364,0.46126872,0.09622153,0.31968674,0.07087707
W686153,-0.27273127,-0.12688583,0.28726754,0.075644635,-0.23390082,0.032512918,0.42617312,0.26402164,0.55084825,0.14106297,0.072239295,0.09440591,-0.23634191,0.24797422,-0.30369216,0.08531233,-0.17649417,0.33909556,1.6032431,0.076912805,-0.29794553,0.7129231,0.24961355,0.072190315,0.029611737,0.5030745,-0.63670987,-0.1169766,-0.15330823,-0.19028077
WMC289927,-0.7674392,-0.9328711,-0.38965926,-0.25393945,-0.049592707,0.5429781,-0.25072992,0.3116349,0.385857,0.7594073,-0.564297,-0.3255025,-0.28248072,0.13659723,-0.21870896,0.15828714,0.18386292,0.25057518,0.8535153,1.1123904,-0.011780173,0.4014497,0.096205905,-0.030849809,0.04085831,0.3195984,-0.16811591,-0.24963337,0.09934442,-0.28416753
WMC0034902,0.6840919,-0.0668306,0.8491822,0.034691162,0.027182342,0.47713017,0.37146196,0.32560056,-0.07842131,-0.40292874,0.21952298,-0.24479634,-0.7159422,0.15805916,-0.4913344,-0.07011254,0.14183843,-0.2217153,1.0401818,1.1212131,-0.033227827,0.8830709,0.24113297,0.23228605,-0.24344097,0.41936046,0.42443714,0.07770217,-0.56744,0.006641487
W687918,-0.3351311,0.15276249,-0.40343404,0.06534451,-0.08400646,0.9649352,0.47217697,0.39456937,0.39487633,-0.27544287,-0.16345198,-0.045596294,-0.8510769,0.36072114,0.34753224,0.17986688,0.16833736,0.17322128,-0.4182458,0.29788804,-0.3265543,0.75028133,0.20947093,-0.29931644,0.036238246,0.30497742,0.4318818,0.040696096,0.22218333,0.23830073
W843292,0.42678842,-0.403556,0.36251917,0.23287573,-0.36150226,0.3363414,0.37554666,0.68383515,0.71559215,-0.6395092,-0.4245014,0.04705014,0.24245079,-0.27898958,-0.5657595,-0.040838897,0.36563015,0.4133919,0.37202123,0.7252614,-0.26604185,0.05894364,0.23376837,0.025468016,0.30457342,0.18214913,0.2549237,-0.27051118,0.049771942,0.08943479
W689655,-0.62901986,0.20524155,-0.1986676,0.11200525,-0.32827067,0.3949018,-0.60407376,0.61392283,0.75038445,0.59771097,-0.7120444,0.06430998,0.27315617,-0.6656103,0.22697179,0.22582439,0.5735219,0.33861986,0.059787985,0.562945,-0.23486614,0.9119096,-0.22766072,-0.63284016,0.16735823,0.06805701,-0.67506325,-0.11642331,0.18598917,0.20682448
WMC0035406,0.4171592,-0.5070175,0.3629965,-0.34529436,0.2560278,0.9943652,0.30492765,0.5149322,-0.06822337,0.548463,0.10959074,0.31942728,-0.19197994,0.46599478,-0.500581,0.44675896,0.43793875,-0.03985679,0.23574007,0.59616417,-0.18569574,0.6962338,0.20110269,0.74372977,-0.042854022,0.23176675,0.14007914,-0.32202533,0.09751207,0.23299488
W694090,-0.39656958,-0.62285,-0.61491084,0.05971917,-0.06504465,0.59738606,-0.32566336,0.4561254,0.36114013,-0.07878336,-0.18663277,-0.1773787,-0.7811964,0.39978305,0.13291913,0.146829,0.18166304,0.053891424,-0.75877655,1.2413858,-0.24158262,0.5202422,-0.6704953,-0.33562133,0.010866888,0.28608173,0.46622854,0.012822018,0.21740417,0.17431597
W694036,-0.39656958,-0.62285,-0.61491084,0.05971917,-0.06504475,0.59738606,-0.32566324,0.45612547,0.36114013,-0.07878326,-0.18663308,-0.1773787,-0.7811964,0.39978307,0.13291913,0.146829,0.18166304,0.053891398,-0.75877655,1.2413858,-0.24158262,0.52024233,-0.6704954,-0.33562133,0.010866896,0.28608176,0.4662286,0.012822018,0.2174042,0.17431597
W840558,-0.11187214,0.37557733,-0.3352277,0.23085342,0.5271561,0.2527325,0.2188647,0.6898191,-0.27717766,-0.3071227,-0.27172875,-0.46248505,-0.8561415,0.47597387,0.039099663,-0.36365035,0.61772907,0.08866086,0.14369304,1.2070094,-0.111881666,0.2822057,0.3005882,0.010711288,0.0111731365,0.33834475,0.16130768,0.18855901,-0.031778466,-0.011606219
WMC0110223,0.04711474,-0.033633266,0.25605103,-0.1818233,0.38974577,0.863318,-0.17872484,1.4573412,0.8276249,0.81497437,0.0094341235,-0.17664035,0.4085789,-0.05866917,-0.47298792,-0.23611146,0.38214132,0.19982614,-0.20282212,0.20511124,0.103484325,0.6157422,0.5334796,0.025453893,-0.010097336,0.14929616,0.5346834,-0.47892442,0.5198152,0.23758864
WMC290913,-0.781809,-0.32748336,-0.2229206,0.27724746,0.02231016,0.5859007,0.38164523,-0.0057129893,-0.36119238,-0.16887167,-0.35289106,0.0012841988,-0.7782644,0.42249256,0.002954945,0.14956562,0.26354483,0.3574747,0.30990952,0.055282846,0.014642677,0.090369396,0.34200922,-0.30254617,0.059997488,0.29103306,0.25627118,0.14671382,0.046757966,-0.13902
W688739,-0.63490874,-0.2746631,-0.5397771,-0.2664694,-0.05854122,0.33637536,-0.6463822,-0.22718422,-0.077633485,0.46084094,0.41508234,0.29919535,0.09164464,0.7775455,-0.632432,-0.04429469,0.44071552,-0.27310959,0.842532,0.64316773,-0.1503089,-0.3338142,-0.22362879,-0.007061963,-0.059823442,0.54551756,0.19452454,-0.18973218,-0.061458074,-0.5603024
W840267,-0.62102646,0.48907664,0.56035876,0.26738182,-0.6601103,-0.2546186,0.29636264,-0.24919127,0.43829435,0.50415057,0.067459814,0.27363616,-0.30520535,-0.030370915,0.28288043,0.20238136,0.4113041,0.42121106,0.5128929,0.38781166,-0.045308854,0.27974284,0.37394872,0.3790447,-0.2290403,0.14824387,0.32389256,0.06330534,0.43826962,0.1288361
W842353,-0.62102646,0.48907664,0.56035876,0.26738182,-0.6601103,-0.2546186,0.29636264,-0.24919127,0.43829435,0.50415057,0.067459814,0.27363616,-0.30520535,-0.030370915,0.28288043,0.20238136,0.4113041,0.42121106,0.5128929,0.38781166,-0.045308854,0.27974284,0.37394872,0.3790447,-0.2290403,0.14824387,0.32389256,0.06330534,0.43826962,0.1288361
WMC0037846,-0.62560123,0.12473779,0.1832567,0.25397363,0.47158483,0.42011464,0.14309762,0.22861154,0.08706654,0.4938322,0.48294902,-0.34149012,-0.5072837,0.2930737,-0.22572838,0.47785038,-0.2939941,0.24005222,-0.343714,0.6746438,-0.1606767,-0.56210566,0.42364547,0.37931904,-0.26843864,-0.19746427,0.09341397,-0.066715434,0.13257444,-0.15659907
WMC0035466,1.0215715,-0.025843842,0.27071705,0.021795664,-0.18055889,-0.57732105,0.44962686,0.007200571,-0.030572113,0.57747906,0.25539315,0.44484827,0.2946307,-0.23857008,-0.72409666,-0.18734221,-0.65348715,0.733213,1.4628055,0.11055845,0.09084282,0.91202104,0.32478,0.44763216,-0.10648483,-0.28035018,0.36797124,0.101012364,-0.386124,-0.032368332
WMC0035458,-0.42814624,0.6021858,-0.20998092,-0.061138984,0.37604895,-0.03564913,0.31210524,-0.39365116,0.51055616,0.7914989,-0.5568685,0.1653828,0.36946744,0.45028773,-0.4526763,0.1017785,0.19809486,-0.21848199,0.05933207,0.7496456,0.03542758,0.71310306,0.28355908,-0.28506413,0.052952487,0.59064573,0.03437612,0.47416714,-0.6690599,-0.3199423
WMC135385,-0.76429445,0.4232655,0.24297442,0.058474056,-0.17218043,0.09475521,0.11095736,0.47113448,0.46200633,0.37870896,-0.31919774,0.106163226,-0.38029304,0.124259025,-0.14292178,-0.10248161,0.08910989,0.7456018,1.5671682,0.29826453,-0.4125174,0.8026773,-0.50744754,0.16627291,0.03824273,0.1466814,-0.111083165,-0.292332,0.09280265,-0.14245032
W694017,-0.474,0.43073586,0.49676016,0.30704793,0.38987297,1.0296725,0.022009209,0.37609914,0.24692973,0.30275005,0.42079684,-0.31460434,-0.6598856,0.16770326,0.24981001,0.28904733,-0.103720866,0.17792119,0.9007482,0.47273517,-0.48868057,0.8021615,0.6877075,0.57744306,-0.16856913,0.044549383,0.037813038,0.060151342,0.08379877,0.1112278
W695215,-0.474,0.43073586,0.49676016,0.30704793,0.38987297,1.0296725,0.022009209,0.37609914,0.24692973,0.30275005,0.42079684,-0.31460434,-0.6598856,0.16770326,0.24981001,0.28904733,-0.103720866,0.17792119,0.9007482,0.47273517,-0.48868057,0.8021615,0.6877075,0.57744306,-0.16856913,0.044549383,0.037813038,0.060151342,0.08379877,0.1112278
WMC0035268,0.835217,0.98334324,0.22229032,-0.027821353,-0.18898606,0.8191337,-0.4584129,0.81245035,0.44936448,0.14082572,0.12060317,-0.33647034,-0.35835782,0.055957407,-0.43359306,0.15438795,0.710905,0.2578207,0.28976095,1.3409071,-0.052808113,0.15859233,0.1540991,0.13062374,0.027034888,0.23276514,0.061203774,-0.02155098,0.049370803,0.17007193
WMC0035798,0.835217,0.98334324,0.22229032,-0.027821353,-0.18898606,0.8191337,-0.4584129,0.81245035,0.44936448,0.14082572,0.12060317,-0.33647034,-0.35835782,0.055957407,-0.43359306,0.15438795,0.710905,0.2578207,0.28976095,1.3409071,-0.052808113,0.15859233,0.1540991,0.13062374,0.027034888,0.23276514,0.061203774,-0.02155098,0.049370803,0.17007193
WMC0035549,0.835217,0.98334324,0.22229032,-0.027821353,-0.18898606,0.8191337,-0.4584129,0.81245035,0.44936448,0.14082572,0.12060317,-0.33647034,-0.35835782,0.055957407,-0.43359306,0.15438795,0.710905,0.2578207,0.28976095,1.3409071,-0.052808113,0.15859233,0.1540991,0.13062374,0.027034888,0.23276514,0.061203774,-0.02155098,0.049370803,0.17007193
W693121,-0.79394275,0.028617702,-0.5029298,-0.04224477,-0.10587998,0.80175215,-0.559743,1.0556229,0.23844299,0.7034546,-0.19873582,0.2227041,-0.53567004,0.413999,0.12849788,0.18902692,0.2293261,0.091667645,1.0960442,1.2638388,0.00284729,0.33074343,-0.3428567,-0.16971293,0.1721759,0.1958818,0.39470735,0.06501019,0.1779612,0.327679
W844679,0.52041554,0.37116787,-0.45081553,-0.02834908,-0.13158812,0.9372998,0.26107723,0.8980135,0.38661152,-0.46701944,-0.3665496,0.0022160993,-0.53135353,0.43124455,0.029688466,0.3588173,0.16133477,-0.20081162,0.16181226,1.5013597,-0.4315861,0.032739885,0.21488334,0.048346963,0.030194059,0.2045537,0.36926007,0.03899407,0.19720528,0.3628134
W692824,-0.7661095,-0.029346688,0.632467,0.25897044,-0.59803224,0.19304505,0.4190199,0.34093988,0.0033258554,-0.024725096,0.34029582,-0.00095097726,-0.715067,0.27561164,0.2076979,0.08449115,0.19712654,0.54652536,0.71130323,0.6319815,-0.35194713,0.8636343,0.27024016,0.2669621,-0.16106862,0.44428596,0.457158,-0.4881849,-0.50254995,-0.056612857
WMC250267,-0.05367274,-0.20048906,-0.7291774,-0.02976208,-0.5701832,0.21557273,0.4054405,0.53844666,-0.36741003,0.5260616,0.7887264,0.55218387,-0.60297924,0.5343972,0.16039613,0.23039769,0.099867605,0.36215323,1.3506352,0.49805477,-0.542265,0.638815,0.24637388,0.26230565,0.41888046,0.6565477,0.59446913,-0.06278672,0.22039378,-0.34525684
